{"learner":{"attributes":{"scikit_learn":"{\"_estimator_type\": \"regressor\"}"},"feature_names":["bedrooms","bathrooms","sqft_living","sqft_lot","floors"],"feature_types":["int","float","int","int","float"],"gradient_booster":{"model":{"cats":{"enc":[],"feature_segments":[],"sorted_idx":[]},"gbtree_model_param":{"num_parallel_tree":"1","num_trees":"500"},"iteration_indptr":[0,1,2,3,4,5,6,7,8,9,10,11,12,13,14,15,16,17,18,19,20,21,22,23,24,25,26,27,28,29,30,31,32,33,34,35,36,37,38,39,40,41,42,43,44,45,46,47,48,49,50,51,52,53,54,55,56,57,58,59,60,61,62,63,64,65,66,67,68,69,70,71,72,73,74,75,76,77,78,79,80,81,82,83,84,85,86,87,88,89,90,91,92,93,94,95,96,97,98,99,100,101,102,103,104,105,106,107,108,109,110,111,112,113,114,115,116,117,118,119,120,121,122,123,124,125,126,127,128,129,130,131,132,133,134,135,136,137,138,139,140,141,142,143,144,145,146,147,148,149,150,151,152,153,154,155,156,157,158,159,160,161,162,163,164,165,166,167,168,169,170,171,172,173,174,175,176,177,178,179,180,181,182,183,184,185,186,187,188,189,190,191,192,193,194,195,196,197,198,199,200,201,202,203,204,205,206,207,208,209,210,211,212,213,214,215,216,217,218,219,220,221,222,223,224,225,226,227,228,229,230,231,232,233,234,235,236,237,238,239,240,241,242,243,244,245,246,247,248,249,250,251,252,253,254,255,256,257,258,259,260,261,262,263,264,265,266,267,268,269,270,271,272,273,274,275,276,277,278,279,280,281,282,283,284,285,286,287,288,289,290,291,292,293,294,295,296,297,298,299,300,301,302,303,304,305,306,307,308,309,310,311,312,313,314,315,316,317,318,319,320,321,322,323,324,325,326,327,328,329,330,331,332,333,334,335,336,337,338,339,340,341,342,343,344,345,346,347,348,349,350,351,352,353,354,355,356,357,358,359,360,361,362,363,364,365,366,367,368,369,370,371,372,373,374,375,376,377,378,379,380,381,382,383,384,385,386,387,388,389,390,391,392,393,394,395,396,397,398,399,400,401,402,403,404,405,406,407,408,409,410,411,412,413,414,415,416,417,418,419,420,421,422,423,424,425,426,427,428,429,430,431,432,433,434,435,436,437,438,439,440,441,442,443,444,445,446,447,448,449,450,451,452,453,454,455,456,457,458,459,460,461,462,463,464,465,466,467,468,469,470,471,472,473,474,475,476,477,478,479,480,481,482,483,484,485,486,487,488,489,490,491,492,493,494,495,496,497,498,499,500],"tree_info":[0,0,0,0,0,0,0,0,0,0,0,0,0,0,0,0,0,0,0,0,0,0,0,0,0,0,0,0,0,0,0,0,0,0,0,0,0,0,0,0,0,0,0,0,0,0,0,0,0,0,0,0,0,0,0,0,0,0,0,0,0,0,0,0,0,0,0,0,0,0,0,0,0,0,0,0,0,0,0,0,0,0,0,0,0,0,0,0,0,0,0,0,0,0,0,0,0,0,0,0,0,0,0,0,0,0,0,0,0,0,0,0,0,0,0,0,0,0,0,0,0,0,0,0,0,0,0,0,0,0,0,0,0,0,0,0,0,0,0,0,0,0,0,0,0,0,0,0,0,0,0,0,0,0,0,0,0,0,0,0,0,0,0,0,0,0,0,0,0,0,0,0,0,0,0,0,0,0,0,0,0,0,0,0,0,0,0,0,0,0,0,0,0,0,0,0,0,0,0,0,0,0,0,0,0,0,0,0,0,0,0,0,0,0,0,0,0,0,0,0,0,0,0,0,0,0,0,0,0,0,0,0,0,0,0,0,0,0,0,0,0,0,0,0,0,0,0,0,0,0,0,0,0,0,0,0,0,0,0,0,0,0,0,0,0,0,0,0,0,0,0,0,0,0,0,0,0,0,0,0,0,0,0,0,0,0,0,0,0,0,0,0,0,0,0,0,0,0,0,0,0,0,0,0,0,0,0,0,0,0,0,0,0,0,0,0,0,0,0,0,0,0,0,0,0,0,0,0,0,0,0,0,0,0,0,0,0,0,0,0,0,0,0,0,0,0,0,0,0,0,0,0,0,0,0,0,0,0,0,0,0,0,0,0,0,0,0,0,0,0,0,0,0,0,0,0,0,0,0,0,0,0,0,0,0,0,0,0,0,0,0,0,0,0,0,0,0,0,0,0,0,0,0,0,0,0,0,0,0,0,0,0,0,0,0,0,0,0,0,0,0,0,0,0,0,0,0,0,0,0,0,0,0,0,0,0,0,0,0,0,0,0,0,0,0,0,0,0,0,0,0,0,0,0,0,0,0,0,0,0,0,0,0,0,0,0,0,0,0,0,0,0,0,0,0,0,0,0,0,0,0,0,0,0,0,0,0,0,0,0,0,0,0,0,0,0,0,0,0,0],"trees":[{"base_weights":[-1.328003E-2,-7.779093E4,5.2032406E5,-1.3988019E5,6.877482E4,4.0098484E5,1.1823052E6,-1.9691481E5,-9.594649E4,2.890752E4,1.6119589E5,3.2921434E5,6.638642E5,1.113304E6,3.6193172E6,-1.4092884E5,-2.2950548E5,-4.0191246E4,-1.2972174E5,1.5246433E5,1.6567729E4,2.943513E5,1.4937064E5,2.716276E5,4.1278903E5,7.1785325E5,4.6228697E5,1.0050236E6,1.5648476E6,1.6055799E4,1.9957266E5,-2.1397011E5,-1.2594037E5,-2.6056422E5,-2.1045058E5,8.984252E3,-7.857543E4,-1.4435342E5,-7.4957836E4,1.1678823E5,2.8097228E5,-1.1034998E4,5.3365324E4,1.9588298E5,3.4859553E5,1.1630126E5,1.824124E5,2.3307608E5,3.5278247E5,4.44171E5,2.6111342E5,6.3375106E5,8.9393875E5,7.601756E5,4.0599034E5,1.0904162E6,7.149916E5,1.721187E6,9.980269E5,-1.3393042E4,-1.016876E4,-5.125729E3,-7.4878696E3,-1.4248572E4,-1.2302165E4,-8.21526E3,-1.1058219E4,-1.3873932E3,3.0462422E3,-4.834077E3,1.0381211E3,-8.306848E3,-6.702207E3,-3.8813074E3,1.4242997E4,1.6433588E4,5.267564E3,2.1719564E4,1.0591212E4,-1.4393066E3,1.00240625E3,4.548878E3,1.6571862E3,1.4454768E4,5.1120356E3,1.4190765E4,2.1942656E4,1.235078E3,6.392574E3,1.167202E4,8.272472E3,8.165113E3,1.2691874E4,2.9243725E4,1.6747264E4,1.940713E4,2.4293123E4,7.7007656E3,1.5138583E4,1.9503678E4,3.3362785E4,5.481198E4,4.135659E4,8.824107E4,2.0853725E4,1.6340872E4,2.5646514E4,4.976306E4,6.725579E4,2.4266725E4,4.2782598E4,7.3417E4,1.4961923E5,5.192066E4,9.805799E3],"categories":[],"categories_nodes":[],"categories_segments":[],"categories_sizes":[],"default_left":[0,0,0,0,0,0,0,0,0,0,0,0,0,0,0,0,0,0,0,0,0,0,0,0,0,0,0,0,0,0,0,0,0,0,0,0,0,0,0,0,0,0,0,0,0,0,0,0,0,0,0,0,0,0,0,0,0,0,0,0,0,0,0,0,0,0,0,0,0,0,0,0,0,0,0,0,0,0,0,0,0,0,0,0,0,0,0,0,0,0,0,0,0,0,0,0,0,0,0,0,0,0,0,0,0,0,0,0,0,0,0,0,0,0,0],"id":0,"left_children":[1,3,5,7,9,11,13,15,17,19,21,23,25,27,29,31,33,35,37,39,41,43,45,47,49,51,53,55,57,-1,-1,59,61,63,65,67,69,71,73,75,77,79,81,83,85,87,89,91,93,95,97,99,101,103,105,107,109,111,113,-1,-1,-1,-1,-1,-1,-1,-1,-1,-1,-1,-1,-1,-1,-1,-1,-1,-1,-1,-1,-1,-1,-1,-1,-1,-1,-1,-1,-1,-1,-1,-1,-1,-1,-1,-1,-1,-1,-1,-1,-1,-1,-1,-1,-1,-1,-1,-1,-1,-1,-1,-1,-1,-1,-1,-1],"loss_changes":[6.9991935E14,1.3690331E14,1.7719773E14,2.6459263E13,1.6491196E13,3.576077E13,5.364837E13,8.3554394E12,1.1239053E13,4.768152E12,2.080163E12,7.1070636E12,4.1084214E12,1.4806564E13,9.764684E12,1.827603E12,1.6638133E12,4.255269E12,2.9683677E12,1.2692305E12,2.891311E12,5.1392283E11,1.334789E12,2.7053932E12,2.7875596E12,4.172393E12,1.1839178E12,5.9816647E12,3.8650511E12,0E0,0E0,1.0939164E11,7.702168E11,3.1974018E11,8.560407E11,1.8885918E12,2.2790637E12,6.3640175E11,7.767552E11,5.0819367E11,5.551109E11,8.982917E11,9.2489174E11,3.2831596E11,2.78884E11,6.5597447E11,4.9717392E11,8.3785E11,9.8396275E11,9.887065E11,4.3075135E11,1.5358786E12,4.5828643E11,3.744974E12,4.8430475E11,3.7265552E12,1.6844597E12,1.1034241E13,3.145298E11,0E0,0E0,0E0,0E0,0E0,0E0,0E0,0E0,0E0,0E0,0E0,0E0,0E0,0E0,0E0,0E0,0E0,0E0,0E0,0E0,0E0,0E0,0E0,0E0,0E0,0E0,0E0,0E0,0E0,0E0,0E0,0E0,0E0,0E0,0E0,0E0,0E0,0E0,0E0,0E0,0E0,0E0,0E0,0E0,0E0,0E0,0E0,0E0,0E0,0E0,0E0,0E0,0E0,0E0,0E0,0E0],"parents":[2147483647,0,0,1,1,2,2,3,3,4,4,5,5,6,6,7,7,8,8,9,9,10,10,11,11,12,12,13,13,14,14,15,15,16,16,17,17,18,18,19,19,20,20,21,21,22,22,23,23,24,24,25,25,26,26,27,27,28,28,31,31,32,32,33,33,34,34,35,35,36,36,37,37,38,38,39,39,40,40,41,41,42,42,43,43,44,44,45,45,46,46,47,47,48,48,49,49,50,50,51,51,52,52,53,53,54,54,55,55,56,56,57,57,58,58],"right_children":[2,4,6,8,10,12,14,16,18,20,22,24,26,28,30,32,34,36,38,40,42,44,46,48,50,52,54,56,58,-1,-1,60,62,64,66,68,70,72,74,76,78,80,82,84,86,88,90,92,94,96,98,100,102,104,106,108,110,112,114,-1,-1,-1,-1,-1,-1,-1,-1,-1,-1,-1,-1,-1,-1,-1,-1,-1,-1,-1,-1,-1,-1,-1,-1,-1,-1,-1,-1,-1,-1,-1,-1,-1,-1,-1,-1,-1,-1,-1,-1,-1,-1,-1,-1,-1,-1,-1,-1,-1,-1,-1,-1,-1,-1,-1,-1],"split_conditions":[3.07E3,2.16E3,4.41E3,1.46E3,2.7E3,3.86E3,6E0,5.16E3,6.05E3,4.064E3,4.425E3,3.43E3,3.5235E4,5.76E3,1.1E4,9.1E2,1.09E3,2.25E0,2.01E3,2.53E3,2.44E3,2.79E3,2.87E3,3E0,3.2112E4,1.2888E4,4E0,3.6384E4,5.0529E4,1.6055799E4,1.9957266E5,7E2,2E0,8.9E2,6.84E3,1.79E3,2.5E0,1.64E3,3.5E0,3E0,4E0,9.775E3,4E0,2.74E3,3.25E0,2.25E0,4E0,6.678E3,4E3,3E0,2E0,2.75E0,2E0,1.5E0,3.5E0,4.25E0,3.5E0,3.5235E4,2.5E0,-1.3393042E4,-1.016876E4,-5.125729E3,-7.4878696E3,-1.4248572E4,-1.2302165E4,-8.21526E3,-1.1058219E4,-1.3873932E3,3.0462422E3,-4.834077E3,1.0381211E3,-8.306848E3,-6.702207E3,-3.8813074E3,1.4242997E4,1.6433588E4,5.267564E3,2.1719564E4,1.0591212E4,-1.4393066E3,1.00240625E3,4.548878E3,1.6571862E3,1.4454768E4,5.1120356E3,1.4190765E4,2.1942656E4,1.235078E3,6.392574E3,1.167202E4,8.272472E3,8.165113E3,1.2691874E4,2.9243725E4,1.6747264E4,1.940713E4,2.4293123E4,7.7007656E3,1.5138583E4,1.9503678E4,3.3362785E4,5.481198E4,4.135659E4,8.824107E4,2.0853725E4,1.6340872E4,2.5646514E4,4.976306E4,6.725579E4,2.4266725E4,4.2782598E4,7.3417E4,1.4961923E5,5.192066E4,9.805799E3],"split_indices":[2,2,2,2,2,2,1,3,3,3,3,2,3,2,3,2,2,1,2,2,2,2,2,1,3,3,0,3,3,0,0,2,4,2,3,2,4,2,1,0,0,3,0,2,1,1,0,3,3,1,4,1,4,4,1,1,1,3,4,0,0,0,0,0,0,0,0,0,0,0,0,0,0,0,0,0,0,0,0,0,0,0,0,0,0,0,0,0,0,0,0,0,0,0,0,0,0,0,0,0,0,0,0,0,0,0,0,0,0,0,0,0,0,0,0],"split_type":[0,0,0,0,0,0,0,0,0,0,0,0,0,0,0,0,0,0,0,0,0,0,0,0,0,0,0,0,0,0,0,0,0,0,0,0,0,0,0,0,0,0,0,0,0,0,0,0,0,0,0,0,0,0,0,0,0,0,0,0,0,0,0,0,0,0,0,0,0,0,0,0,0,0,0,0,0,0,0,0,0,0,0,0,0,0,0,0,0,0,0,0,0,0,0,0,0,0,0,0,0,0,0,0,0,0,0,0,0,0,0,0,0,0,0],"sum_hessian":[1.729E4,1.5042E4,2.248E3,1.0566E4,4.476E3,1.906E3,3.42E2,4.596E3,5.97E3,3.128E3,1.348E3,1.499E3,4.07E2,3.34E2,8E0,1.693E3,2.903E3,2.253E3,3.717E3,2.83E2,2.845E3,1.08E2,1.24E3,8.9E2,6.09E2,3.19E2,8.8E1,2.72E2,6.2E1,1E0,7E0,2.86E2,1.407E3,1.099E3,1.804E3,9.88E2,1.265E3,2.932E3,7.85E2,2.23E2,6E1,1.626E3,1.219E3,4E1,6.8E1,6.22E2,6.18E2,6.06E2,2.84E2,5.03E2,1.06E2,2.19E2,1E2,1.2E1,7.6E1,2.08E2,6.4E1,4.7E1,1.5E1,4.3E1,2.43E2,7.12E2,6.95E2,4.03E2,6.96E2,3.43E2,1.461E3,5.79E2,4.09E2,1.07E3,1.95E2,9.37E2,1.995E3,7.8E2,5E0,1E1,2.13E2,1.7E1,4.3E1,1.035E3,5.91E2,4.25E2,7.94E2,1.9E1,2.1E1,4.2E1,2.6E1,7E1,5.52E2,1.51E2,4.67E2,1.41E2,4.65E2,1.8E1,2.66E2,2.19E2,2.84E2,3.1E1,7.5E1,2.8E1,1.91E2,2.1E1,7.9E1,2E0,1E1,4.6E1,3E1,1.55E2,5.3E1,2.6E1,3.8E1,4.1E1,6E0,1.4E1,1E0],"tree_param":{"num_deleted":"0","num_feature":"5","num_nodes":"115","size_leaf_vector":"1"}},{"base_weights":[6.777609E1,-7.389778E4,4.9480494E5,-1.3289458E5,6.536803E4,3.811629E5,1.1251855E6,-1.870869E5,-9.115031E4,2.7481244E4,1.5319781E5,3.1284253E5,6.3140656E5,1.0590382E6,3.46231E6,-1.3318669E5,-2.176499E5,-3.8182645E4,-1.2323691E5,1.4503131E5,1.5741364E4,2.8014475E5,1.4192431E5,2.5812123E5,3.9225866E5,6.824263E5,4.408702E5,9.554466E5,1.4911252E6,1.5654403E4,1.9084134E5,-2.0339948E5,-1.1885553E5,-2.470498E5,-1.9944653E5,8.536703E3,-7.464967E4,-1.4482214E5,-8.937474E4,1.11045695E5,2.6745338E5,-1.0483524E4,5.0702145E4,1.8656608E5,3.316894E5,1.10498445E5,1.7332398E5,2.2145662E5,3.3530472E5,4.2204912E5,2.4827122E5,6.0230375E5,8.50194E5,7.3055875E5,3.8623612E5,1.03645525E6,6.802735E5,1.6397741E6,9.519834E5,-1.2785982E4,-9.669798E3,-4.7620645E3,-7.1098413E3,-1.3487018E4,-1.1678042E4,-7.9169546E3,-1.0552935E4,-1.318144E3,2.8943013E3,-4.5925996E3,9.864797E2,-8.632364E3,-6.9575522E3,-4.5375815E3,1.0371277E4,1.5686608E4,5.0054165E3,2.0693918E4,1.00736875E4,7.814118E2,-1.5233314E3,4.321968E3,1.574431E3,1.242964E4,3.1240107E3,1.3497727E4,2.0886156E4,1.1741946E3,6.0735244E3,9.471378E3,6.151919E3,7.7597314E3,1.2058642E4,2.5992787E4,1.573856E4,1.8441186E4,2.3082729E4,7.327761E3,1.4391614E4,3.3642633E4,2.433596E4,5.2195953E4,3.931461E4,8.52997E4,1.9905826E4,1.5541211E4,2.4405553E4,4.759327E4,6.577525E4,2.3098324E4,4.0698312E4,6.9833555E4,1.4320698E5,4.949769E4,9.560653E3],"categories":[],"categories_nodes":[],"categories_segments":[],"categories_sizes":[],"default_left":[0,0,0,0,0,0,0,0,0,0,0,0,0,0,0,0,0,0,0,0,0,0,0,0,0,0,0,0,0,0,0,0,0,0,0,0,0,0,0,0,0,0,0,0,0,0,0,0,0,0,0,0,0,0,0,0,0,0,0,0,0,0,0,0,0,0,0,0,0,0,0,0,0,0,0,0,0,0,0,0,0,0,0,0,0,0,0,0,0,0,0,0,0,0,0,0,0,0,0,0,0,0,0,0,0,0,0,0,0,0,0,0,0,0,0],"id":1,"left_children":[1,3,5,7,9,11,13,15,17,19,21,23,25,27,29,31,33,35,37,39,41,43,45,47,49,51,53,55,57,-1,-1,59,61,63,65,67,69,71,73,75,77,79,81,83,85,87,89,91,93,95,97,99,101,103,105,107,109,111,113,-1,-1,-1,-1,-1,-1,-1,-1,-1,-1,-1,-1,-1,-1,-1,-1,-1,-1,-1,-1,-1,-1,-1,-1,-1,-1,-1,-1,-1,-1,-1,-1,-1,-1,-1,-1,-1,-1,-1,-1,-1,-1,-1,-1,-1,-1,-1,-1,-1,-1,-1,-1,-1,-1,-1,-1],"loss_changes":[6.327749E14,1.2360554E14,1.6068432E14,2.388782E13,1.4893401E13,3.240593E13,4.935914E13,7.543892E12,1.0143324E13,4.3158112E12,1.8908447E12,6.417369E12,3.665352E12,1.3570117E13,8.85306E12,1.6522056E12,1.5198648E12,3.8408125E12,2.7046256E12,1.1519079E12,2.6098656E12,4.6387744E11,1.2054199E12,2.4471918E12,2.511784E12,3.789369E12,1.1264223E12,5.3804867E12,3.4879664E12,0E0,0E0,9.7616134E10,7.504008E11,2.7887927E11,8.3344176E11,1.7048519E12,2.0572175E12,3.3402598E11,6.113827E11,4.651685E11,5.059395E11,8.494349E11,8.349761E11,3.000301E11,2.5371188E11,5.919416E11,4.7794514E11,7.555787E11,9.1636734E11,8.921704E11,3.883831E11,1.4664713E12,4.2948834E11,3.5364017E12,4.3984198E11,3.6812232E12,1.5210685E12,1.0286799E13,2.728961E11,0E0,0E0,0E0,0E0,0E0,0E0,0E0,0E0,0E0,0E0,0E0,0E0,0E0,0E0,0E0,0E0,0E0,0E0,0E0,0E0,0E0,0E0,0E0,0E0,0E0,0E0,0E0,0E0,0E0,0E0,0E0,0E0,0E0,0E0,0E0,0E0,0E0,0E0,0E0,0E0,0E0,0E0,0E0,0E0,0E0,0E0,0E0,0E0,0E0,0E0,0E0,0E0,0E0,0E0,0E0,0E0],"parents":[2147483647,0,0,1,1,2,2,3,3,4,4,5,5,6,6,7,7,8,8,9,9,10,10,11,11,12,12,13,13,14,14,15,15,16,16,17,17,18,18,19,19,20,20,21,21,22,22,23,23,24,24,25,25,26,26,27,27,28,28,31,31,32,32,33,33,34,34,35,35,36,36,37,37,38,38,39,39,40,40,41,41,42,42,43,43,44,44,45,45,46,46,47,47,48,48,49,49,50,50,51,51,52,52,53,53,54,54,55,55,56,56,57,57,58,58],"right_children":[2,4,6,8,10,12,14,16,18,20,22,24,26,28,30,32,34,36,38,40,42,44,46,48,50,52,54,56,58,-1,-1,60,62,64,66,68,70,72,74,76,78,80,82,84,86,88,90,92,94,96,98,100,102,104,106,108,110,112,114,-1,-1,-1,-1,-1,-1,-1,-1,-1,-1,-1,-1,-1,-1,-1,-1,-1,-1,-1,-1,-1,-1,-1,-1,-1,-1,-1,-1,-1,-1,-1,-1,-1,-1,-1,-1,-1,-1,-1,-1,-1,-1,-1,-1,-1,-1,-1,-1,-1,-1,-1,-1,-1,-1,-1,-1],"split_conditions":[3.07E3,2.16E3,4.41E3,1.46E3,2.7E3,3.86E3,6E0,5.12E3,6.05E3,4.064E3,4.425E3,3.43E3,3.5235E4,5.76E3,1.1E4,9.1E2,1.09E3,2.25E0,1.88E3,2.53E3,2.44E3,2.79E3,2.87E3,3E0,3.2112E4,1.2888E4,4E0,3.6384E4,5.0529E4,1.5654403E4,1.9084134E5,7E2,2E0,8.9E2,7.108E3,1.79E3,2.5E0,1.53E3,3.5E0,3E0,4E0,2.5E0,4E0,2.76E3,3.25E0,2.25E0,5E0,6.678E3,4.132E3,3E0,2E0,5E0,2E0,1.5E0,3.5E0,5.16E3,3.5E0,3.5235E4,2.5E0,-1.2785982E4,-9.669798E3,-4.7620645E3,-7.1098413E3,-1.3487018E4,-1.1678042E4,-7.9169546E3,-1.0552935E4,-1.318144E3,2.8943013E3,-4.5925996E3,9.864797E2,-8.632364E3,-6.9575522E3,-4.5375815E3,1.0371277E4,1.5686608E4,5.0054165E3,2.0693918E4,1.00736875E4,7.814118E2,-1.5233314E3,4.321968E3,1.574431E3,1.242964E4,3.1240107E3,1.3497727E4,2.0886156E4,1.1741946E3,6.0735244E3,9.471378E3,6.151919E3,7.7597314E3,1.2058642E4,2.5992787E4,1.573856E4,1.8441186E4,2.3082729E4,7.327761E3,1.4391614E4,3.3642633E4,2.433596E4,5.2195953E4,3.931461E4,8.52997E4,1.9905826E4,1.5541211E4,2.4405553E4,4.759327E4,6.577525E4,2.3098324E4,4.0698312E4,6.9833555E4,1.4320698E5,4.949769E4,9.560653E3],"split_indices":[2,2,2,2,2,2,1,3,3,3,3,2,3,2,3,2,2,1,2,2,2,2,2,1,3,3,0,3,3,0,0,2,4,2,3,2,4,2,1,0,0,1,0,2,1,1,0,3,3,1,4,0,4,4,1,2,1,3,4,0,0,0,0,0,0,0,0,0,0,0,0,0,0,0,0,0,0,0,0,0,0,0,0,0,0,0,0,0,0,0,0,0,0,0,0,0,0,0,0,0,0,0,0,0,0,0,0,0,0,0,0,0,0,0,0],"split_type":[0,0,0,0,0,0,0,0,0,0,0,0,0,0,0,0,0,0,0,0,0,0,0,0,0,0,0,0,0,0,0,0,0,0,0,0,0,0,0,0,0,0,0,0,0,0,0,0,0,0,0,0,0,0,0,0,0,0,0,0,0,0,0,0,0,0,0,0,0,0,0,0,0,0,0,0,0,0,0,0,0,0,0,0,0,0,0,0,0,0,0,0,0,0,0,0,0,0,0,0,0,0,0,0,0,0,0,0,0,0,0,0,0,0,0],"sum_hessian":[1.729E4,1.5042E4,2.248E3,1.0566E4,4.476E3,1.906E3,3.42E2,4.596E3,5.97E3,3.128E3,1.348E3,1.499E3,4.07E2,3.34E2,8E0,1.665E3,2.931E3,2.253E3,3.717E3,2.83E2,2.845E3,1.08E2,1.24E3,8.9E2,6.09E2,3.19E2,8.8E1,2.72E2,6.2E1,1E0,7E0,2.8E2,1.385E3,1.116E3,1.815E3,9.88E2,1.265E3,2.268E3,1.449E3,2.23E2,6E1,1.626E3,1.219E3,4E1,6.8E1,6.22E2,6.18E2,6.06E2,2.84E2,5.03E2,1.06E2,2.19E2,1E2,1.2E1,7.6E1,2.08E2,6.4E1,4.7E1,1.5E1,4.1E1,2.39E2,6.91E2,6.94E2,4.09E2,7.07E2,4.03E2,1.412E3,5.79E2,4.09E2,1.07E3,1.95E2,3.79E2,1.889E3,1.443E3,6E0,1E1,2.13E2,1.7E1,4.3E1,7.05E2,9.21E2,4.25E2,7.94E2,2.6E1,1.4E1,4.2E1,2.6E1,7E1,5.52E2,4.66E2,1.52E2,1.41E2,4.65E2,2.6E1,2.58E2,2.19E2,2.84E2,3.1E1,7.5E1,1.33E2,8.6E1,2.1E1,7.9E1,2E0,1E1,4.6E1,3E1,1.63E2,4.5E1,2.6E1,3.8E1,4.1E1,6E0,1.4E1,1E0],"tree_param":{"num_deleted":"0","num_feature":"5","num_nodes":"115","size_leaf_vector":"1"}},{"base_weights":[1.2886394E2,-6.5468914E4,5.0453944E5,-1.2625834E5,7.017876E4,3.8636897E5,1.070838E6,-1.7774953E5,-8.6594766E4,2.8202998E4,1.6045117E5,3.156392E5,6.005584E5,1.00742744E6,3.3121388E6,-1.27199734E5,-2.0717569E5,-3.627441E4,-1.1707769E5,1.4180911E5,1.683666E4,1.4094655E5,2.3183281E5,2.6403603E5,3.819205E5,6.487721E5,4.204576E5,9.0832325E5,1.420888E6,1.5263044E4,1.8249205E5,-1.6433756E5,-1.0100843E5,-2.3522997E5,-1.8996412E5,8.111446E3,-7.0920016E4,-1.305222E5,-6.6759805E4,1.05585766E5,2.5409389E5,-2.8266902E4,3.673939E4,1.08688914E5,1.620579E5,2.9750644E5,1.25097266E5,2.275632E5,3.3314606E5,4.04105E5,2.2430919E5,5.724521E5,8.085903E5,7.0212356E5,3.6744312E5,9.8517494E5,6.472413E5,1.5622238E6,9.080753E5,-1.0113116E4,-7.3421963E3,-3.5118176E3,-6.1894663E3,-1.2865225E4,-1.1104874E4,-7.616697E3,-1.0037061E4,-1.2523514E3,2.7499387E3,-4.363183E3,9.374064E2,-7.683504E3,-6.127091E3,-3.423944E3,2.0237256E4,1.497358E4,4.756314E3,1.127762E4,2.2533209E4,5.719256E3,-1.6571119E3,3.3183748E3,9.8463055E2,6.2039727E3,1.3533003E3,6.703782E3,9.618089E3,1.9779574E4,1.0159948E4,4.9443706E3,1.2822209E4,3.2203514E4,1.1125966E4,1.7823664E4,1.0899241E4,2.6015178E4,1.90799E4,1.3237825E4,3.0524226E3,1.7002178E4,3.0228701E4,4.970478E4,3.737345E4,8.2456375E4,1.9001018E4,1.4780687E4,2.3224639E4,4.4769098E4,6.1316645E4,2.1986184E4,3.8715574E4,6.642501E4,1.3706953E5,4.7187797E4,9.321638E3],"categories":[],"categories_nodes":[],"categories_segments":[],"categories_sizes":[],"default_left":[0,0,0,0,0,0,0,0,0,0,0,0,0,0,0,0,0,0,0,0,0,0,0,0,0,0,0,0,0,0,0,0,0,0,0,0,0,0,0,0,0,0,0,0,0,0,0,0,0,0,0,0,0,0,0,0,0,0,0,0,0,0,0,0,0,0,0,0,0,0,0,0,0,0,0,0,0,0,0,0,0,0,0,0,0,0,0,0,0,0,0,0,0,0,0,0,0,0,0,0,0,0,0,0,0,0,0,0,0,0,0,0,0,0,0],"id":2,"left_children":[1,3,5,7,9,11,13,15,17,19,21,23,25,27,29,31,33,35,37,39,41,43,45,47,49,51,53,55,57,-1,-1,59,61,63,65,67,69,71,73,75,77,79,81,83,85,87,89,91,93,95,97,99,101,103,105,107,109,111,113,-1,-1,-1,-1,-1,-1,-1,-1,-1,-1,-1,-1,-1,-1,-1,-1,-1,-1,-1,-1,-1,-1,-1,-1,-1,-1,-1,-1,-1,-1,-1,-1,-1,-1,-1,-1,-1,-1,-1,-1,-1,-1,-1,-1,-1,-1,-1,-1,-1,-1,-1,-1,-1,-1,-1,-1],"loss_changes":[5.721614E14,1.2618832E14,1.3275657E14,2.1565853E13,1.7941379E13,2.4776928E13,4.541116E13,6.811617E12,9.154735E12,4.1736292E12,2.0599066E12,4.1437794E12,3.2700304E12,1.2436212E13,8.02471E12,1.6311355E12,1.3575284E12,3.4667202E12,2.506516E12,1.1689662E12,2.6411275E12,7.8801325E11,2.2129E12,1.691156E12,1.8009838E12,3.440252E12,1.07099036E12,4.839992E12,3.14754E12,0E0,0E0,4.3404336E11,6.8951736E11,2.6174135E11,7.0142604E11,1.5389879E12,1.8569636E12,5.2297938E11,6.648103E11,4.257722E11,2.966909E11,6.304155E11,1.0295281E12,5.883214E11,5.7881185E11,1.751146E12,4.0152138E11,8.2726145E11,5.6702796E11,1.0384761E12,4.394755E11,1.4368008E12,4.021205E11,3.3387273E12,3.9945817E11,3.4277194E12,1.3735192E12,9.58682E12,2.3603236E11,0E0,0E0,0E0,0E0,0E0,0E0,0E0,0E0,0E0,0E0,0E0,0E0,0E0,0E0,0E0,0E0,0E0,0E0,0E0,0E0,0E0,0E0,0E0,0E0,0E0,0E0,0E0,0E0,0E0,0E0,0E0,0E0,0E0,0E0,0E0,0E0,0E0,0E0,0E0,0E0,0E0,0E0,0E0,0E0,0E0,0E0,0E0,0E0,0E0,0E0,0E0,0E0,0E0,0E0,0E0,0E0],"parents":[2147483647,0,0,1,1,2,2,3,3,4,4,5,5,6,6,7,7,8,8,9,9,10,10,11,11,12,12,13,13,14,14,15,15,16,16,17,17,18,18,19,19,20,20,21,21,22,22,23,23,24,24,25,25,26,26,27,27,28,28,31,31,32,32,33,33,34,34,35,35,36,36,37,37,38,38,39,39,40,40,41,41,42,42,43,43,44,44,45,45,46,46,47,47,48,48,49,49,50,50,51,51,52,52,53,53,54,54,55,55,56,56,57,57,58,58],"right_children":[2,4,6,8,10,12,14,16,18,20,22,24,26,28,30,32,34,36,38,40,42,44,46,48,50,52,54,56,58,-1,-1,60,62,64,66,68,70,72,74,76,78,80,82,84,86,88,90,92,94,96,98,100,102,104,106,108,110,112,114,-1,-1,-1,-1,-1,-1,-1,-1,-1,-1,-1,-1,-1,-1,-1,-1,-1,-1,-1,-1,-1,-1,-1,-1,-1,-1,-1,-1,-1,-1,-1,-1,-1,-1,-1,-1,-1,-1,-1,-1,-1,-1,-1,-1,-1,-1,-1,-1,-1,-1,-1,-1,-1,-1,-1,-1],"split_conditions":[3.16E3,2.16E3,4.41E3,1.46E3,2.72E3,3.86E3,6E0,5.16E3,6.05E3,4.064E3,3E0,3E0,3.5235E4,5.76E3,1.1E4,1.13E3,1.09E3,2.25E0,2.01E3,2.53E3,2.31E3,2.87E3,5E0,3.47E3,3.4222E4,1.2888E4,4E0,3.6384E4,5.0529E4,1.5263044E4,1.8249205E5,8.5E2,2E0,8.9E2,7.14E3,1.79E3,2.5E0,1.6E3,3.75E0,3E0,3E0,3E0,4E0,5E0,9.645E3,6.192E3,1.2724E4,3E0,3.2112E4,2E0,5E0,2.75E0,2E0,1.5E0,3.5E0,4.25E0,3.5E0,3.5235E4,2.5E0,-1.0113116E4,-7.3421963E3,-3.5118176E3,-6.1894663E3,-1.2865225E4,-1.1104874E4,-7.616697E3,-1.0037061E4,-1.2523514E3,2.7499387E3,-4.363183E3,9.374064E2,-7.683504E3,-6.127091E3,-3.423944E3,2.0237256E4,1.497358E4,4.756314E3,1.127762E4,2.2533209E4,5.719256E3,-1.6571119E3,3.3183748E3,9.8463055E2,6.2039727E3,1.3533003E3,6.703782E3,9.618089E3,1.9779574E4,1.0159948E4,4.9443706E3,1.2822209E4,3.2203514E4,1.1125966E4,1.7823664E4,1.0899241E4,2.6015178E4,1.90799E4,1.3237825E4,3.0524226E3,1.7002178E4,3.0228701E4,4.970478E4,3.737345E4,8.2456375E4,1.9001018E4,1.4780687E4,2.3224639E4,4.4769098E4,6.1316645E4,2.1986184E4,3.8715574E4,6.642501E4,1.3706953E5,4.7187797E4,9.321638E3],"split_indices":[2,2,2,2,2,2,1,3,3,3,1,1,3,2,3,2,2,1,2,2,2,2,0,2,3,3,0,3,3,0,0,2,4,2,3,2,4,2,1,0,4,0,0,0,3,3,3,0,3,4,0,1,4,4,1,1,1,3,4,0,0,0,0,0,0,0,0,0,0,0,0,0,0,0,0,0,0,0,0,0,0,0,0,0,0,0,0,0,0,0,0,0,0,0,0,0,0,0,0,0,0,0,0,0,0,0,0,0,0,0,0,0,0,0,0],"split_type":[0,0,0,0,0,0,0,0,0,0,0,0,0,0,0,0,0,0,0,0,0,0,0,0,0,0,0,0,0,0,0,0,0,0,0,0,0,0,0,0,0,0,0,0,0,0,0,0,0,0,0,0,0,0,0,0,0,0,0,0,0,0,0,0,0,0,0,0,0,0,0,0,0,0,0,0,0,0,0,0,0,0,0,0,0,0,0,0,0,0,0,0,0,0,0,0,0,0,0,0,0,0,0,0,0,0,0,0,0,0,0,0,0,0,0],"sum_hessian":[1.729E4,1.5301E4,1.989E3,1.0566E4,4.735E3,1.647E3,3.42E2,4.596E3,5.97E3,3.233E3,1.502E3,1.24E3,4.07E2,3.34E2,8E0,1.693E3,2.903E3,2.253E3,3.717E3,2.93E2,2.94E3,1.182E3,3.2E2,7E2,5.4E2,3.19E2,8.8E1,2.72E2,6.2E1,1E0,7E0,6.98E2,9.95E2,1.099E3,1.804E3,9.88E2,1.265E3,2.932E3,7.85E2,2.23E2,7E1,9E2,2.04E3,4.7E2,7.12E2,1.97E2,1.23E2,4.61E2,2.39E2,4.72E2,6.8E1,2.19E2,1E2,1.2E1,7.6E1,2.08E2,6.4E1,4.7E1,1.5E1,2.17E2,4.81E2,4.25E2,5.7E2,4.03E2,6.96E2,4.05E2,1.399E3,5.79E2,4.09E2,1.07E3,1.95E2,7.47E2,2.185E3,7.83E2,2E0,1E1,2.13E2,6.3E1,7E0,2.9E1,8.71E2,7.44E2,1.296E3,3.95E2,7.5E1,3.73E2,3.39E2,9.5E1,1.02E2,1.04E2,1.9E1,4E0,4.57E2,1.97E2,4.2E1,7.3E1,3.99E2,5.4E1,1.4E1,2.8E1,1.91E2,2.1E1,7.9E1,2E0,1E1,4.6E1,3E1,1.55E2,5.3E1,2.6E1,3.8E1,4.1E1,6E0,1.4E1,1E0],"tree_param":{"num_deleted":"0","num_feature":"5","num_nodes":"115","size_leaf_vector":"1"}},{"base_weights":[1.8589737E2,-6.670458E4,4.475995E5,-1.19951836E5,5.898907E4,3.2143062E5,9.1813044E5,-1.6887702E5,-8.226484E4,2.4779363E4,1.3829462E5,2.685345E5,4.925108E5,8.713972E5,3.0040845E6,-1.2020937E5,-1.9647298E5,-2.5963916E4,-1.0723734E5,1.3128569E5,1.4142478E4,2.5587223E5,1.27856055E5,2.291304E5,3.3199066E5,5.275994E5,3.606257E5,7.4537056E5,1.191394E6,3.5326055E4,1.7450802E5,-1.550966E5,-9.5991914E4,-2.2303217E5,-1.8002856E5,4.186802E4,-5.1872613E4,-1.2792033E5,-7.454167E4,7.081311E4,1.8795969E5,-1.003571E4,4.6375074E4,2.2901033E5,4.5392178E5,9.950002E4,1.5618878E5,2.0003977E5,3.032959E5,5.220363E5,3.136875E5,3.4817553E5,5.6168956E5,-5.3463875E4,3.7053178E5,6.497517E5,9.1069225E5,1.3184008E6,7.612359E5,-9.514577E3,-6.830349E3,-3.3187644E3,-5.874521E3,-1.2174633E4,-1.0543429E4,-6.978639E3,-9.486441E3,-2.9611307E2,3.9051646E3,6.101678E2,-3.449373E3,-4.842645E3,-6.6921245E3,-1.0385737E3,-4.0137598E3,9.619892E3,2.8370842E3,1.4409648E4,7.747929E3,-1.3347548E3,9.567583E2,3.9408489E3,1.4466388E3,8.311362E3,1.6625967E4,2.7916146E4,9.804776E3,7.3706562E3,4.0376257E3,1.0171254E4,7.0256665E3,2.9296469E4,9.825414E3,1.6673244E4,8.237821E3,2.6663166E4,9.819047E2,1.650766E4,8.669824E3,1.1016542E4,2.4114865E4,3.135551E4,2.1792434E4,2.826047E2,-4.2923955E3,2.3809746E4,1.6324736E4,3.4657652E4,1.5212933E4,4.874344E4,2.6892848E4,5.1946723E4,7.530483E4,2.6439451E4,4.2142887E4],"categories":[],"categories_nodes":[],"categories_segments":[],"categories_sizes":[],"default_left":[0,0,0,0,0,0,0,0,0,0,0,0,0,0,0,0,0,0,0,0,0,0,0,0,0,0,0,0,0,0,0,0,0,0,0,0,0,0,0,0,0,0,0,0,0,0,0,0,0,0,0,0,0,0,0,0,0,0,0,0,0,0,0,0,0,0,0,0,0,0,0,0,0,0,0,0,0,0,0,0,0,0,0,0,0,0,0,0,0,0,0,0,0,0,0,0,0,0,0,0,0,0,0,0,0,0,0,0,0,0,0,0,0,0,0],"id":3,"left_children":[1,3,5,7,9,11,13,15,17,19,21,23,25,27,29,31,33,35,37,39,41,43,45,47,49,51,53,55,57,-1,-1,59,61,63,65,67,69,71,73,75,77,79,81,83,85,87,89,91,93,95,97,99,101,103,105,107,109,111,113,-1,-1,-1,-1,-1,-1,-1,-1,-1,-1,-1,-1,-1,-1,-1,-1,-1,-1,-1,-1,-1,-1,-1,-1,-1,-1,-1,-1,-1,-1,-1,-1,-1,-1,-1,-1,-1,-1,-1,-1,-1,-1,-1,-1,-1,-1,-1,-1,-1,-1,-1,-1,-1,-1,-1,-1],"loss_changes":[5.175099E14,1.0068749E14,1.33219786E14,1.947001E13,1.2142761E13,1.5930571E13,4.368683E13,6.1502925E12,8.3922906E12,3.5429732E12,1.6229692E12,3.3195232E12,1.7440923E12,1.790488E13,8.7020316E12,1.3926788E12,1.2403983E12,3.228826E12,2.7874128E12,9.6002166E11,2.2184266E12,4.759261E11,9.814818E11,1.7538063E12,1.6380728E12,1.810681E12,3.9309332E11,4.735537E12,6.098686E12,0E0,0E0,4.1716023E11,6.20001E11,2.266476E11,6.8617136E11,8.8016296E11,1.4582903E12,4.5289256E11,4.931432E11,2.2689396E11,4.382817E11,7.911821E11,6.880706E11,5.815906E11,2.1352337E11,5.4770637E11,4.2975678E11,7.120607E11,9.2726415E11,2.3770694E11,1.03999445E12,8.3680664E11,1.9823958E12,6.228461E9,2.5865014E11,3.0429843E12,2.3708555E12,3.6282743E12,1.6143247E11,0E0,0E0,0E0,0E0,0E0,0E0,0E0,0E0,0E0,0E0,0E0,0E0,0E0,0E0,0E0,0E0,0E0,0E0,0E0,0E0,0E0,0E0,0E0,0E0,0E0,0E0,0E0,0E0,0E0,0E0,0E0,0E0,0E0,0E0,0E0,0E0,0E0,0E0,0E0,0E0,0E0,0E0,0E0,0E0,0E0,0E0,0E0,0E0,0E0,0E0,0E0,0E0,0E0,0E0,0E0,0E0],"parents":[2147483647,0,0,1,1,2,2,3,3,4,4,5,5,6,6,7,7,8,8,9,9,10,10,11,11,12,12,13,13,14,14,15,15,16,16,17,17,18,18,19,19,20,20,21,21,22,22,23,23,24,24,25,25,26,26,27,27,28,28,31,31,32,32,33,33,34,34,35,35,36,36,37,37,38,38,39,39,40,40,41,41,42,42,43,43,44,44,45,45,46,46,47,47,48,48,49,49,50,50,51,51,52,52,53,53,54,54,55,55,56,56,57,57,58,58],"right_children":[2,4,6,8,10,12,14,16,18,20,22,24,26,28,30,32,34,36,38,40,42,44,46,48,50,52,54,56,58,-1,-1,60,62,64,66,68,70,72,74,76,78,80,82,84,86,88,90,92,94,96,98,100,102,104,106,108,110,112,114,-1,-1,-1,-1,-1,-1,-1,-1,-1,-1,-1,-1,-1,-1,-1,-1,-1,-1,-1,-1,-1,-1,-1,-1,-1,-1,-1,-1,-1,-1,-1,-1,-1,-1,-1,-1,-1,-1,-1,-1,-1,-1,-1,-1,-1,-1,-1,-1,-1,-1,-1,-1,-1,-1,-1,-1],"split_conditions":[3.07E3,2.16E3,4.18E3,1.46E3,2.7E3,3.73E3,6E0,5.12E3,5.16E3,4.064E3,4.425E3,3E0,2.917E4,5.16E3,1.1E4,1.13E3,1.09E3,2E0,1.88E3,2.34E3,2.44E3,3E0,2.87E3,3.43E3,4.132E3,2.75E0,2.5E0,3.75E0,5.0529E4,3.5326055E4,1.7450802E5,8.7E2,2E0,8.9E2,6.84E3,1.5E0,2E0,6.589E3,6.05E3,2E0,3.052E3,9.775E3,4E0,2.88E3,2.87E3,4E0,4E0,3.7E3,3.5235E4,4.5E0,3.5235E4,3.92E3,5E0,4E0,2.75E0,6.0984E4,4.0164E4,4E0,8.8426E4,-9.514577E3,-6.830349E3,-3.3187644E3,-5.874521E3,-1.2174633E4,-1.0543429E4,-6.978639E3,-9.486441E3,-2.9611307E2,3.9051646E3,6.101678E2,-3.449373E3,-4.842645E3,-6.6921245E3,-1.0385737E3,-4.0137598E3,9.619892E3,2.8370842E3,1.4409648E4,7.747929E3,-1.3347548E3,9.567583E2,3.9408489E3,1.4466388E3,8.311362E3,1.6625967E4,2.7916146E4,9.804776E3,7.3706562E3,4.0376257E3,1.0171254E4,7.0256665E3,2.9296469E4,9.825414E3,1.6673244E4,8.237821E3,2.6663166E4,9.819047E2,1.650766E4,8.669824E3,1.1016542E4,2.4114865E4,3.135551E4,2.1792434E4,2.826047E2,-4.2923955E3,2.3809746E4,1.6324736E4,3.4657652E4,1.5212933E4,4.874344E4,2.6892848E4,5.1946723E4,7.530483E4,2.6439451E4,4.2142887E4],"split_indices":[2,2,2,2,2,2,1,3,3,3,3,1,3,2,3,2,2,1,2,2,2,4,2,2,3,1,1,1,3,0,0,2,4,2,3,4,4,3,3,1,3,3,0,2,2,0,0,3,3,1,3,2,0,0,1,3,3,1,3,0,0,0,0,0,0,0,0,0,0,0,0,0,0,0,0,0,0,0,0,0,0,0,0,0,0,0,0,0,0,0,0,0,0,0,0,0,0,0,0,0,0,0,0,0,0,0,0,0,0,0,0,0,0,0,0],"split_type":[0,0,0,0,0,0,0,0,0,0,0,0,0,0,0,0,0,0,0,0,0,0,0,0,0,0,0,0,0,0,0,0,0,0,0,0,0,0,0,0,0,0,0,0,0,0,0,0,0,0,0,0,0,0,0,0,0,0,0,0,0,0,0,0,0,0,0,0,0,0,0,0,0,0,0,0,0,0,0,0,0,0,0,0,0,0,0,0,0,0,0,0,0,0,0,0,0,0,0,0,0,0,0,0,0,0,0,0,0,0,0,0,0,0,0],"sum_hessian":[1.729E4,1.5042E4,2.248E3,1.0566E4,4.476E3,1.774E3,4.74E2,4.596E3,5.97E3,3.128E3,1.348E3,1.357E3,4.17E2,4.65E2,9E0,1.665E3,2.931E3,1.835E3,4.135E3,2.83E2,2.845E3,1.08E2,1.24E3,8.4E2,5.17E2,3.27E2,9E1,3.36E2,1.29E2,2E0,7E0,6.8E2,9.85E2,1.116E3,1.815E3,5.07E2,1.328E3,2.531E3,1.604E3,1.38E2,1.45E2,1.626E3,1.219E3,9.7E1,1.1E1,6.22E2,6.18E2,6.06E2,2.34E2,4.3E1,4.74E2,5.4E1,2.73E2,2E0,8.8E1,2.16E2,1.2E2,9.8E1,3.1E1,2.31E2,4.49E2,4.16E2,5.69E2,4.09E2,7.07E2,3.54E2,1.461E3,2.19E2,2.88E2,2.8E2,1.048E3,4.08E2,2.123E3,1.55E2,1.449E3,1.3E1,1.25E2,3.4E1,1.11E2,1.035E3,5.91E2,4.25E2,7.94E2,6.2E1,3.5E1,7E0,4E0,1.73E2,4.49E2,1.51E2,4.67E2,4E0,6.02E2,1.91E2,4.3E1,4.2E1,1E0,4.23E2,5.1E1,2.9E1,2.5E1,1.77E2,9.6E1,1E0,1E0,2.3E1,6.5E1,1.91E2,2.5E1,1.01E2,1.9E1,4.2E1,5.6E1,1E1,2.1E1],"tree_param":{"num_deleted":"0","num_feature":"5","num_nodes":"115","size_leaf_vector":"1"}},{"base_weights":[2.2418323E2,-5.9111117E4,4.5647975E5,-1.1035876E5,7.2121875E4,3.6261016E5,1.0455327E6,-1.549099E5,-6.9852625E4,3.308811E4,1.4468761E5,2.9205516E5,5.8555375E5,9.7422925E5,3.028851E6,-1.0873922E5,-1.8151253E5,-1.2039785E4,-9.19575E4,1.4041748E5,2.2909322E4,1.2664443E5,2.1073247E5,2.3821836E5,3.533686E5,6.3095925E5,4.2076338E5,8.702081E5,1.2939446E6,1.3998315E4,1.668733E5,-1.4833352E5,-8.596451E4,-2.123588E5,-1.661742E5,4.497459E4,-4.5793023E4,-1.0819943E5,-5.2808984E4,1.02405164E5,2.3423962E5,-1.2257338E3,4.5668785E4,5.2158316E4,1.3563217E5,2.7234703E5,1.1064846E5,2.9961412E4,2.3050355E5,3.787477E5,2.2794184E5,5.6950194E5,8.888069E5,7.653132E5,3.6452434E5,9.61591E5,5.863542E5,1.4214289E6,8.306203E5,-9.132572E3,-6.6252188E3,-2.933861E3,-5.2384253E3,-1.1719411E4,-1.0070708E4,-6.4339824E3,-8.84171E3,5.2127167E2,3.8838574E3,-3.1287773E3,2.0222731E3,-1.8732893E3,-5.6069795E3,-1.4194515E3,-3.6597856E3,1.5514268E4,4.591681E3,1.6346805E4,9.194686E3,1.4209788E3,-1.1042782E3,3.8882546E3,1.4440692E3,7.824103E3,5.824832E2,1.123568E4,6.1489834E3,1.8219996E4,9.195303E3,4.280056E3,1.183073E4,1.1907781E4,-5.637578E2,1.5200741E4,2.0548754E4,6.440933E3,1.3481424E4,1.405833E4,2.9544482E4,4.5417418E4,-6.6034595E3,7.873337E4,2.2298781E4,1.4126591E4,2.2958348E4,4.037789E4,5.565187E4,3.052786E4,-6.239948E2,5.9896543E4,1.2796777E5,4.317607E4,8.427611E3],"categories":[],"categories_nodes":[],"categories_segments":[],"categories_sizes":[],"default_left":[0,0,0,0,0,0,0,0,0,0,0,0,0,0,0,0,0,0,0,0,0,0,0,0,0,0,0,0,0,0,0,0,0,0,0,0,0,0,0,0,0,0,0,0,0,0,0,0,0,0,0,0,0,0,0,0,0,0,0,0,0,0,0,0,0,0,0,0,0,0,0,0,0,0,0,0,0,0,0,0,0,0,0,0,0,0,0,0,0,0,0,0,0,0,0,0,0,0,0,0,0,0,0,0,0,0,0,0,0,0,0,0,0],"id":4,"left_children":[1,3,5,7,9,11,13,15,17,19,21,23,25,27,29,31,33,35,37,39,41,43,45,47,49,51,53,55,57,-1,-1,59,61,63,65,67,69,71,73,75,77,79,81,83,85,87,89,-1,91,93,95,97,99,101,103,105,107,109,111,-1,-1,-1,-1,-1,-1,-1,-1,-1,-1,-1,-1,-1,-1,-1,-1,-1,-1,-1,-1,-1,-1,-1,-1,-1,-1,-1,-1,-1,-1,-1,-1,-1,-1,-1,-1,-1,-1,-1,-1,-1,-1,-1,-1,-1,-1,-1,-1,-1,-1,-1,-1,-1,-1],"loss_changes":[4.6812996E14,1.0291975E14,1.0965622E14,1.9848764E13,1.2169358E13,2.6852773E13,3.5656147E13,6.416354E12,7.3675257E12,3.0513643E12,1.7643801E12,4.2301234E12,2.817247E12,7.6871526E12,6.7007446E12,1.716802E12,1.5369188E12,3.073434E12,2.6464045E12,8.390815E11,1.4035198E12,7.84899E11,1.9493542E12,1.8086762E12,1.8522466E12,4.5805826E12,1.503723E12,4.701865E12,2.540515E12,0E0,0E0,3.555113E11,6.198468E11,2.1800734E11,8.661615E11,6.703186E11,1.4541723E12,8.171322E11,6.077798E11,3.5388994E11,2.6189391E11,7.680573E11,7.062943E11,5.4333293E11,1.1614573E12,1.5449509E12,3.709803E11,0E0,1.271864E12,1.09133273E12,3.9913783E11,1.4495682E12,1.3169276E12,2.3992226E12,4.9882857E11,2.646975E12,7.6128505E11,9.141637E12,2.0297495E11,0E0,0E0,0E0,0E0,0E0,0E0,0E0,0E0,0E0,0E0,0E0,0E0,0E0,0E0,0E0,0E0,0E0,0E0,0E0,0E0,0E0,0E0,0E0,0E0,0E0,0E0,0E0,0E0,0E0,0E0,0E0,0E0,0E0,0E0,0E0,0E0,0E0,0E0,0E0,0E0,0E0,0E0,0E0,0E0,0E0,0E0,0E0,0E0,0E0,0E0,0E0,0E0,0E0,0E0],"parents":[2147483647,0,0,1,1,2,2,3,3,4,4,5,5,6,6,7,7,8,8,9,9,10,10,11,11,12,12,13,13,14,14,15,15,16,16,17,17,18,18,19,19,20,20,21,21,22,22,23,23,24,24,25,25,26,26,27,27,28,28,31,31,32,32,33,33,34,34,35,35,36,36,37,37,38,38,39,39,40,40,41,41,42,42,43,43,44,44,45,45,46,46,48,48,49,49,50,50,51,51,52,52,53,53,54,54,55,55,56,56,57,57,58,58],"right_children":[2,4,6,8,10,12,14,16,18,20,22,24,26,28,30,32,34,36,38,40,42,44,46,48,50,52,54,56,58,-1,-1,60,62,64,66,68,70,72,74,76,78,80,82,84,86,88,90,-1,92,94,96,98,100,102,104,106,108,110,112,-1,-1,-1,-1,-1,-1,-1,-1,-1,-1,-1,-1,-1,-1,-1,-1,-1,-1,-1,-1,-1,-1,-1,-1,-1,-1,-1,-1,-1,-1,-1,-1,-1,-1,-1,-1,-1,-1,-1,-1,-1,-1,-1,-1,-1,-1,-1,-1,-1,-1,-1,-1,-1,-1],"split_conditions":[3.16E3,2.22E3,4.57E3,1.53E3,2.72E3,3.92E3,6E0,5.16E3,5.002E3,4.064E3,3E0,3.47E3,3.5235E4,5.76E3,1.1E4,1.13E3,1.09E3,2.25E0,2.01E3,2.54E3,2.44E3,2.25E0,5E0,3.825E3,3.2112E4,1.8E4,4E0,3.6384E4,5.0529E4,1.3998315E4,1.668733E5,8.5E2,2E0,8.7E2,7.108E3,1.79E3,2.5E0,3E0,4E0,3E0,4E0,2.5E0,4E0,8.54E3,2.5E0,6.192E3,1.2724E4,2.9961412E4,6E0,2.75E0,2E0,5.3E3,6E0,1.5E0,3.5E0,3.75E0,6E0,3.5235E4,2.5E0,-9.132572E3,-6.6252188E3,-2.933861E3,-5.2384253E3,-1.1719411E4,-1.0070708E4,-6.4339824E3,-8.84171E3,5.2127167E2,3.8838574E3,-3.1287773E3,2.0222731E3,-1.8732893E3,-5.6069795E3,-1.4194515E3,-3.6597856E3,1.5514268E4,4.591681E3,1.6346805E4,9.194686E3,1.4209788E3,-1.1042782E3,3.8882546E3,1.4440692E3,7.824103E3,5.824832E2,1.123568E4,6.1489834E3,1.8219996E4,9.195303E3,4.280056E3,1.183073E4,1.1907781E4,-5.637578E2,1.5200741E4,2.0548754E4,6.440933E3,1.3481424E4,1.405833E4,2.9544482E4,4.5417418E4,-6.6034595E3,7.873337E4,2.2298781E4,1.4126591E4,2.2958348E4,4.037789E4,5.565187E4,3.052786E4,-6.239948E2,5.9896543E4,1.2796777E5,4.317607E4,8.427611E3],"split_indices":[2,2,2,2,2,2,1,3,3,3,1,2,3,2,3,2,2,1,2,2,2,1,0,3,3,3,0,3,3,0,0,2,4,2,3,2,4,0,0,0,0,1,0,3,1,3,3,0,0,1,4,3,0,4,1,1,0,3,4,0,0,0,0,0,0,0,0,0,0,0,0,0,0,0,0,0,0,0,0,0,0,0,0,0,0,0,0,0,0,0,0,0,0,0,0,0,0,0,0,0,0,0,0,0,0,0,0,0,0,0,0,0,0],"split_type":[0,0,0,0,0,0,0,0,0,0,0,0,0,0,0,0,0,0,0,0,0,0,0,0,0,0,0,0,0,0,0,0,0,0,0,0,0,0,0,0,0,0,0,0,0,0,0,0,0,0,0,0,0,0,0,0,0,0,0,0,0,0,0,0,0,0,0,0,0,0,0,0,0,0,0,0,0,0,0,0,0,0,0,0,0,0,0,0,0,0,0,0,0,0,0,0,0,0,0,0,0,0,0,0,0,0,0,0,0,0,0,0,0],"sum_hessian":[1.729E4,1.5301E4,1.989E3,1.1004E4,4.297E3,1.717E3,2.72E2,5.239E3,5.765E3,2.795E3,1.502E3,1.306E3,4.11E2,2.64E2,8E0,1.917E3,3.322E3,1.595E3,4.17E3,2.41E2,2.554E3,1.182E3,3.2E2,6.98E2,6.08E2,3.2E2,9.1E1,2.02E2,6.2E1,1E0,7E0,6.98E2,1.219E3,1.099E3,2.223E3,5.93E2,1.002E3,2.946E3,1.224E3,1.73E2,6.8E1,1.24E3,1.314E3,1.28E2,1.054E3,1.97E2,1.23E2,1.3E1,6.85E2,5.04E2,1.04E2,2.61E2,5.9E1,1.1E1,8E1,1.51E2,5.1E1,4.7E1,1.5E1,2.17E2,4.81E2,4.99E2,7.2E2,3.58E2,7.41E2,4.95E2,1.728E3,2.89E2,3.04E2,8.39E2,1.63E2,1.56E2,2.79E3,5.58E2,6.66E2,7E0,1.66E2,2.2E1,4.6E1,5.12E2,7.28E2,4.5E2,8.64E2,3.5E1,9.3E1,1.29E2,9.25E2,9.5E1,1.02E2,1.04E2,1.9E1,6.64E2,2.1E1,1.55E2,3.49E2,3.2E1,7.2E1,1.9E1,2.42E2,5.8E1,1E0,2E0,9E0,4.5E1,3.5E1,7.8E1,7.3E1,4.9E1,2E0,4.1E1,6E0,1.4E1,1E0],"tree_param":{"num_deleted":"0","num_feature":"5","num_nodes":"113","size_leaf_vector":"1"}},{"base_weights":[2.6583847E2,-5.6152273E4,4.340898E5,-1.0832023E5,6.0257117E4,3.3171703E5,9.2469106E5,-1.5260172E5,-7.42103E4,2.4340197E4,1.3749934E5,2.708485E5,5.1604572E5,8.689298E5,2.897505E6,-1.08670805E5,-1.7751178E5,-2.3379895E4,-9.6756336E4,1.2284101E5,1.4485189E4,1.2033399E5,2.0033144E5,2.25638E5,3.289293E5,5.573039E5,3.6190338E5,7.8171956E5,1.2330484E6,1.3648358E4,1.5957258E5,-1.399734E5,-8.694083E4,-2.0134977E5,-1.6275158E5,3.90412E4,-4.722228E4,-1.1516107E5,-6.603921E4,9.1168336E4,2.210359E5,-2.524688E4,3.2017826E4,1.161703E5,2.8201475E5,2.5886814E5,1.0524595E5,6.5843475E5,2.2095423E5,3.4833022E5,1.9116778E5,5.0769525E5,7.681541E5,6.260096E5,3.1261397E5,8.4787394E5,5.569814E5,1.3542712E6,7.923145E5,-8.597047E3,-6.1590664E3,-3.0068828E3,-5.319847E3,-8.747339E3,-1.0496574E4,-6.1437217E3,-8.561582E3,-2.9580356E2,3.6564817E3,6.096601E2,-3.154657E3,-4.3549663E3,-6.027462E3,-5.479614E2,-3.5918777E3,1.352171E4,4.076386E3,9.720111E3,2.0323799E4,5.485121E3,-1.493034E3,2.9173584E3,8.434751E2,2.2078704E3,6.2277314E3,1.6331766E4,-3.9261345E3,1.7318484E4,8.740001E3,4.0680906E3,1.126877E4,9.340636E3,3.5295152E4,9.468418E3,1.4040439E4,2.2996404E4,1.6340689E4,1.1446541E4,1.9979388E3,2.8461006E4,2.003235E4,3.9291918E4,-6.4383735E3,7.610893E4,1.6234499E4,1.2322785E4,2.0141707E4,3.8712344E4,5.4596934E4,1.8239271E4,3.378793E4,5.697302E4,1.2248344E5,4.1161184E4,8.216921E3],"categories":[],"categories_nodes":[],"categories_segments":[],"categories_sizes":[],"default_left":[0,0,0,0,0,0,0,0,0,0,0,0,0,0,0,0,0,0,0,0,0,0,0,0,0,0,0,0,0,0,0,0,0,0,0,0,0,0,0,0,0,0,0,0,0,0,0,0,0,0,0,0,0,0,0,0,0,0,0,0,0,0,0,0,0,0,0,0,0,0,0,0,0,0,0,0,0,0,0,0,0,0,0,0,0,0,0,0,0,0,0,0,0,0,0,0,0,0,0,0,0,0,0,0,0,0,0,0,0,0,0,0,0,0,0],"id":5,"left_children":[1,3,5,7,9,11,13,15,17,19,21,23,25,27,29,31,33,35,37,39,41,43,45,47,49,51,53,55,57,-1,-1,59,61,63,65,67,69,71,73,75,77,79,81,83,85,87,89,91,93,95,97,99,101,103,105,107,109,111,113,-1,-1,-1,-1,-1,-1,-1,-1,-1,-1,-1,-1,-1,-1,-1,-1,-1,-1,-1,-1,-1,-1,-1,-1,-1,-1,-1,-1,-1,-1,-1,-1,-1,-1,-1,-1,-1,-1,-1,-1,-1,-1,-1,-1,-1,-1,-1,-1,-1,-1,-1,-1,-1,-1,-1,-1],"loss_changes":[4.2323074E14,9.29331E13,9.963945E13,1.5949487E13,1.313575E13,1.8350483E13,3.5214538E13,5.011304E12,6.8406477E12,3.137549E12,1.5969288E12,3.184475E12,2.3930434E12,9.673994E12,6.0721023E12,1.1210515E12,9.988651E11,2.7343035E12,2.3306447E12,8.942167E11,2.0495322E12,7.636223E11,1.7594392E12,1.2755256E12,1.3793346E12,2.9572108E12,9.6287064E11,3.5865494E12,2.2928834E12,0E0,0E0,3.4438172E11,5.0778656E11,2.1636737E11,5.930578E11,7.789543E11,1.2539826E12,3.8035417E11,4.948791E11,3.6507655E11,2.7164593E11,5.6426444E11,8.13059E11,6.918662E11,4.9218244E11,1.3959608E12,3.3744224E11,2.483762E10,1.2607616E12,9.854559E11,3.8484967E11,1.4975133E12,1.0370123E12,3.016197E12,3.6031798E11,2.910243E12,1.237347E12,8.503255E12,1.7527682E11,0E0,0E0,0E0,0E0,0E0,0E0,0E0,0E0,0E0,0E0,0E0,0E0,0E0,0E0,0E0,0E0,0E0,0E0,0E0,0E0,0E0,0E0,0E0,0E0,0E0,0E0,0E0,0E0,0E0,0E0,0E0,0E0,0E0,0E0,0E0,0E0,0E0,0E0,0E0,0E0,0E0,0E0,0E0,0E0,0E0,0E0,0E0,0E0,0E0,0E0,0E0,0E0,0E0,0E0,0E0,0E0],"parents":[2147483647,0,0,1,1,2,2,3,3,4,4,5,5,6,6,7,7,8,8,9,9,10,10,11,11,12,12,13,13,14,14,15,15,16,16,17,17,18,18,19,19,20,20,21,21,22,22,23,23,24,24,25,25,26,26,27,27,28,28,31,31,32,32,33,33,34,34,35,35,36,36,37,37,38,38,39,39,40,40,41,41,42,42,43,43,44,44,45,45,46,46,47,47,48,48,49,49,50,50,51,51,52,52,53,53,54,54,55,55,56,56,57,57,58,58],"right_children":[2,4,6,8,10,12,14,16,18,20,22,24,26,28,30,32,34,36,38,40,42,44,46,48,50,52,54,56,58,-1,-1,60,62,64,66,68,70,72,74,76,78,80,82,84,86,88,90,92,94,96,98,100,102,104,106,108,110,112,114,-1,-1,-1,-1,-1,-1,-1,-1,-1,-1,-1,-1,-1,-1,-1,-1,-1,-1,-1,-1,-1,-1,-1,-1,-1,-1,-1,-1,-1,-1,-1,-1,-1,-1,-1,-1,-1,-1,-1,-1,-1,-1,-1,-1,-1,-1,-1,-1,-1,-1,-1,-1,-1,-1,-1,-1],"split_conditions":[3.16E3,2.16E3,4.41E3,1.46E3,2.72E3,3.86E3,6E0,5.12E3,5.16E3,4.064E3,3E0,3E0,3.5235E4,5.76E3,1.1E4,1.13E3,1.09E3,2E0,1.89E3,2.53E3,2.31E3,2.5E0,5E0,3E0,3.4222E4,1.6972E4,4E0,3.6384E4,5.0529E4,1.3648358E4,1.5957258E5,8.7E2,2E0,6.4E3,3E0,1.5E0,2E0,6.589E3,6.05E3,3E0,3E0,3E0,4E0,2.25E0,1.8645E4,6.192E3,1.2724E4,2E0,3.47E3,2E0,5E0,5E0,6E0,1.5E0,3.5E0,5.16E3,3.5E0,3.5235E4,2.5E0,-8.597047E3,-6.1590664E3,-3.0068828E3,-5.319847E3,-8.747339E3,-1.0496574E4,-6.1437217E3,-8.561582E3,-2.9580356E2,3.6564817E3,6.096601E2,-3.154657E3,-4.3549663E3,-6.027462E3,-5.479614E2,-3.5918777E3,1.352171E4,4.076386E3,9.720111E3,2.0323799E4,5.485121E3,-1.493034E3,2.9173584E3,8.434751E2,2.2078704E3,6.2277314E3,1.6331766E4,-3.9261345E3,1.7318484E4,8.740001E3,4.0680906E3,1.126877E4,9.340636E3,3.5295152E4,9.468418E3,1.4040439E4,2.2996404E4,1.6340689E4,1.1446541E4,1.9979388E3,2.8461006E4,2.003235E4,3.9291918E4,-6.4383735E3,7.610893E4,1.6234499E4,1.2322785E4,2.0141707E4,3.8712344E4,5.4596934E4,1.8239271E4,3.378793E4,5.697302E4,1.2248344E5,4.1161184E4,8.216921E3],"split_indices":[2,2,2,2,2,2,1,3,3,3,1,1,3,2,3,2,2,1,2,2,2,4,0,0,3,3,0,3,3,0,0,2,4,3,0,4,4,3,3,0,4,0,0,1,3,3,3,1,2,4,0,0,0,4,1,2,1,3,4,0,0,0,0,0,0,0,0,0,0,0,0,0,0,0,0,0,0,0,0,0,0,0,0,0,0,0,0,0,0,0,0,0,0,0,0,0,0,0,0,0,0,0,0,0,0,0,0,0,0,0,0,0,0,0,0],"split_type":[0,0,0,0,0,0,0,0,0,0,0,0,0,0,0,0,0,0,0,0,0,0,0,0,0,0,0,0,0,0,0,0,0,0,0,0,0,0,0,0,0,0,0,0,0,0,0,0,0,0,0,0,0,0,0,0,0,0,0,0,0,0,0,0,0,0,0,0,0,0,0,0,0,0,0,0,0,0,0,0,0,0,0,0,0,0,0,0,0,0,0,0,0,0,0,0,0,0,0,0,0,0,0,0,0,0,0,0,0,0,0,0,0,0,0],"sum_hessian":[1.729E4,1.5301E4,1.989E3,1.0566E4,4.735E3,1.647E3,3.42E2,4.596E3,5.97E3,3.233E3,1.502E3,1.24E3,4.07E2,3.34E2,8E0,1.665E3,2.931E3,1.835E3,4.135E3,2.93E2,2.94E3,1.182E3,3.2E2,7E2,5.4E2,3.19E2,8.8E1,2.72E2,6.2E1,1E0,7E0,6.8E2,9.85E2,1.116E3,1.815E3,5.07E2,1.328E3,2.584E3,1.551E3,2.23E2,7E1,9E2,2.04E3,1.154E3,2.8E1,1.97E2,1.23E2,6E0,6.94E2,4.72E2,6.8E1,2.61E2,5.8E1,1.2E1,7.6E1,2.08E2,6.4E1,4.7E1,1.5E1,2.31E2,4.49E2,4.16E2,5.69E2,2.79E2,8.37E2,3.21E2,1.494E3,2.19E2,2.88E2,2.8E2,1.048E3,4.19E2,2.165E3,1.48E2,1.403E3,1E1,2.13E2,6.3E1,7E0,2.9E1,8.71E2,7.44E2,1.296E3,1.21E2,1.033E3,2.5E1,3E0,9.5E1,1.02E2,1.04E2,1.9E1,1E0,5E0,4.57E2,2.37E2,7.3E1,3.99E2,5.4E1,1.4E1,1.63E2,9.8E1,5.7E1,1E0,2E0,1E1,4.6E1,3E1,1.63E2,4.5E1,2.6E1,3.8E1,4.1E1,6E0,1.4E1,1E0],"tree_param":{"num_deleted":"0","num_feature":"5","num_nodes":"115","size_leaf_vector":"1"}},{"base_weights":[3.0583026E2,-5.7239035E4,3.8520894E5,-1.1185007E5,3.3802406E4,2.7592803E5,7.927635E5,-1.4875317E5,-8.259181E4,-3.4156953E3,9.835392E4,2.3042794E5,4.2308878E5,7.5145144E5,2.6386292E6,-1.1606471E5,-1.7903775E5,-4.4961223E4,-1.1180942E5,4.8721082E4,-1.7748379E4,2.0946711E5,8.794382E4,2.0175303E5,2.976411E5,4.5295512E5,3.107893E5,6.416929E5,1.03019906E6,3.2861457E4,1.5259128E5,-1.6304942E5,-1.00647805E5,-2.0552136E5,-1.6811655E5,-3.8454038E3,-6.608614E4,-1.25817484E5,-9.653617E4,1.15216016E5,1.7774152E4,-4.019243E4,1.5714561E4,1.8981419E5,3.941329E5,6.0742395E4,1.3015451E5,1.7552492E5,2.6341297E5,4.6427725E5,2.7856412E5,2.8680022E5,4.8465425E5,2.1338519E5,3.5755838E5,5.5504756E5,7.917783E5,1.1449614E6,6.7248894E5,-9.184054E3,-7.434884E3,-6.0973374E3,-4.499152E3,-1.1248377E4,-9.727637E3,-8.48578E3,-4.5169014E3,-2.031914E3,2.0619722E3,-3.8952974E3,1.3984439E2,-3.147562E3,-6.429767E3,-5.450841E3,-3.2594507E3,4.467331E3,1.1114838E4,-8.4400226E2,5.0638354E3,-2.8967344E3,-9.860778E2,-7.141645E2,2.1162585E3,7.901755E3,1.4788421E4,2.9755813E3,2.1884256E4,5.1867007E3,2.0270009E3,1.01674066E3,6.837144E3,8.496752E3,2.23124E4,1.4581143E4,6.7745273E3,1.5045862E4,2.658935E4,1.4612669E4,4.441837E3,1.1797076E4,3.0091979E4,2.723802E4,1.8467998E4,1.5085185E4,-5.5429285E2,3.4029887E4,1.64308E4,2.964027E4,1.2743636E4,4.2498117E4,2.277255E4,5.0641668E4,7.630163E4,2.5320793E4,4.0438645E4],"categories":[],"categories_nodes":[],"categories_segments":[],"categories_sizes":[],"default_left":[0,0,0,0,0,0,0,0,0,0,0,0,0,0,0,0,0,0,0,0,0,0,0,0,0,0,0,0,0,0,0,0,0,0,0,0,0,0,0,0,0,0,0,0,0,0,0,0,0,0,0,0,0,0,0,0,0,0,0,0,0,0,0,0,0,0,0,0,0,0,0,0,0,0,0,0,0,0,0,0,0,0,0,0,0,0,0,0,0,0,0,0,0,0,0,0,0,0,0,0,0,0,0,0,0,0,0,0,0,0,0,0,0,0,0],"id":6,"left_children":[1,3,5,7,9,11,13,15,17,19,21,23,25,27,29,31,33,35,37,39,41,43,45,47,49,51,53,55,57,-1,-1,59,61,63,65,67,69,71,73,75,77,79,81,83,85,87,89,91,93,95,97,99,101,103,105,107,109,111,113,-1,-1,-1,-1,-1,-1,-1,-1,-1,-1,-1,-1,-1,-1,-1,-1,-1,-1,-1,-1,-1,-1,-1,-1,-1,-1,-1,-1,-1,-1,-1,-1,-1,-1,-1,-1,-1,-1,-1,-1,-1,-1,-1,-1,-1,-1,-1,-1,-1,-1,-1,-1,-1,-1,-1,-1],"loss_changes":[3.8300384E14,7.479557E13,9.994708E13,1.0140334E13,1.3552753E13,1.1787596E13,3.423901E13,4.0944628E12,5.7639216E12,2.6753082E12,2.3678524E12,2.5572671E12,1.2611853E12,1.3596172E13,6.181322E12,1.4337578E12,5.890355E11,1.9931097E12,6.196413E11,1.5865849E12,2.1095628E12,5.63931E11,2.1598778E12,1.498218E12,1.1549477E12,1.5885717E12,3.382528E11,3.9429477E12,4.5667414E12,0E0,0E0,1.186642E11,3.3202006E11,8.95442E10,1.7520866E11,1.2955407E12,1.2345216E12,2.6031528E11,5.472707E11,6.588166E11,1.5295904E12,6.093957E11,9.0104306E11,4.9536565E11,2.0712863E11,9.946076E11,5.319101E11,9.426279E11,9.8174186E11,2.8111064E11,9.2202546E11,7.392377E11,1.6975774E12,6.377429E11,3.373164E11,2.3083771E12,1.9807181E12,3.3383472E12,3.5994888E11,0E0,0E0,0E0,0E0,0E0,0E0,0E0,0E0,0E0,0E0,0E0,0E0,0E0,0E0,0E0,0E0,0E0,0E0,0E0,0E0,0E0,0E0,0E0,0E0,0E0,0E0,0E0,0E0,0E0,0E0,0E0,0E0,0E0,0E0,0E0,0E0,0E0,0E0,0E0,0E0,0E0,0E0,0E0,0E0,0E0,0E0,0E0,0E0,0E0,0E0,0E0,0E0,0E0,0E0,0E0,0E0],"parents":[2147483647,0,0,1,1,2,2,3,3,4,4,5,5,6,6,7,7,8,8,9,9,10,10,11,11,12,12,13,13,14,14,15,15,16,16,17,17,18,18,19,19,20,20,21,21,22,22,23,23,24,24,25,25,26,26,27,27,28,28,31,31,32,32,33,33,34,34,35,35,36,36,37,37,38,38,39,39,40,40,41,41,42,42,43,43,44,44,45,45,46,46,47,47,48,48,49,49,50,50,51,51,52,52,53,53,54,54,55,55,56,56,57,57,58,58],"right_children":[2,4,6,8,10,12,14,16,18,20,22,24,26,28,30,32,34,36,38,40,42,44,46,48,50,52,54,56,58,-1,-1,60,62,64,66,68,70,72,74,76,78,80,82,84,86,88,90,92,94,96,98,100,102,104,106,108,110,112,114,-1,-1,-1,-1,-1,-1,-1,-1,-1,-1,-1,-1,-1,-1,-1,-1,-1,-1,-1,-1,-1,-1,-1,-1,-1,-1,-1,-1,-1,-1,-1,-1,-1,-1,-1,-1,-1,-1,-1,-1,-1,-1,-1,-1,-1,-1,-1,-1,-1,-1,-1,-1,-1,-1,-1,-1],"split_conditions":[3.07E3,2.01E3,4.18E3,1.41E3,2.55E3,3.73E3,6E0,6.4E3,6.589E3,5.002E3,4.425E3,3.25E0,2.917E4,5.16E3,1.1E4,9.4E2,1.02E3,2E0,9.335E3,2.5E0,2.31E3,3E0,2.83E3,3.43E3,4.132E3,2.75E0,4.4093E4,3.75E0,4.705E4,3.2861457E4,1.5259128E5,7.9E2,1.13E3,8.5E2,7.3616E4,1.5E0,2.5E0,3E0,1.84E3,2.36E3,2.75E0,9.264E3,8.775E3,2.88E3,2.64E3,4E0,2E0,2.5E0,3.5235E4,3.26E3,6E0,4.08E3,5E0,5E0,1.5E0,6.0984E4,4.0164E4,2.7468E4,5.76E3,-9.184054E3,-7.434884E3,-6.0973374E3,-4.499152E3,-1.1248377E4,-9.727637E3,-8.48578E3,-4.5169014E3,-2.031914E3,2.0619722E3,-3.8952974E3,1.3984439E2,-3.147562E3,-6.429767E3,-5.450841E3,-3.2594507E3,4.467331E3,1.1114838E4,-8.4400226E2,5.0638354E3,-2.8967344E3,-9.860778E2,-7.141645E2,2.1162585E3,7.901755E3,1.4788421E4,2.9755813E3,2.1884256E4,5.1867007E3,2.0270009E3,1.01674066E3,6.837144E3,8.496752E3,2.23124E4,1.4581143E4,6.7745273E3,1.5045862E4,2.658935E4,1.4612669E4,4.441837E3,1.1797076E4,3.0091979E4,2.723802E4,1.8467998E4,1.5085185E4,-5.5429285E2,3.4029887E4,1.64308E4,2.964027E4,1.2743636E4,4.2498117E4,2.277255E4,5.0641668E4,7.630163E4,2.5320793E4,4.0438645E4],"split_indices":[2,2,2,2,2,2,1,3,3,3,3,1,3,2,3,2,2,1,3,1,2,4,2,2,3,1,3,1,3,0,0,2,2,2,3,4,4,0,2,2,1,3,3,2,2,0,1,4,3,2,0,2,0,0,4,3,3,3,2,0,0,0,0,0,0,0,0,0,0,0,0,0,0,0,0,0,0,0,0,0,0,0,0,0,0,0,0,0,0,0,0,0,0,0,0,0,0,0,0,0,0,0,0,0,0,0,0,0,0,0,0,0,0,0,0],"split_type":[0,0,0,0,0,0,0,0,0,0,0,0,0,0,0,0,0,0,0,0,0,0,0,0,0,0,0,0,0,0,0,0,0,0,0,0,0,0,0,0,0,0,0,0,0,0,0,0,0,0,0,0,0,0,0,0,0,0,0,0,0,0,0,0,0,0,0,0,0,0,0,0,0,0,0,0,0,0,0,0,0,0,0,0,0,0,0,0,0,0,0,0,0,0,0,0,0,0,0,0,0,0,0,0,0,0,0,0,0,0,0,0,0,0,0],"sum_hessian":[1.729E4,1.5042E4,2.248E3,9.402E3,5.64E3,1.774E3,4.74E2,4.156E3,5.246E3,3.578E3,2.062E3,1.357E3,4.17E2,4.65E2,9E0,2.001E3,2.155E3,2.294E3,2.952E3,7.71E2,2.807E3,1.75E2,1.887E3,9.54E2,4.03E2,3.27E2,9E1,3.36E2,1.29E2,2E0,7E0,4.92E2,1.509E3,6.24E2,1.531E3,7.79E2,1.515E3,1.536E3,1.416E3,2.44E2,5.27E2,1.68E3,1.127E3,1.6E2,1.5E1,1.149E3,7.38E2,6.72E2,2.82E2,3.9E1,3.64E2,5.4E1,2.73E2,3.1E1,5.9E1,2.16E2,1.2E2,9.6E1,3.3E1,1.97E2,2.95E2,5E2,1.009E3,2.18E2,4.06E2,1.499E3,3.2E1,4.29E2,3.5E2,1.293E3,2.22E2,6.6E1,1.47E3,1.011E3,4.05E2,1.98E2,4.6E1,3.73E2,1.54E2,8.99E2,7.81E2,5.3E2,5.97E2,1.25E2,3.5E1,2E0,1.3E1,3.66E2,7.83E2,4.2E1,6.96E2,6.6E2,1.2E1,2.3E2,5.2E1,1.3E1,2.6E1,3.39E2,2.5E1,4.8E1,6E0,1.77E2,9.6E1,2.2E1,9E0,3E0,5.6E1,1.91E2,2.5E1,1.01E2,1.9E1,7.4E1,2.2E1,1.7E1,1.6E1],"tree_param":{"num_deleted":"0","num_feature":"5","num_nodes":"115","size_leaf_vector":"1"}},{"base_weights":[3.338018E2,-5.0696355E4,3.9272734E5,-9.4709055E4,6.2009656E4,3.1116628E5,9.045558E5,-1.3327884E5,-5.9641344E4,3.24281E4,1.3283023E5,2.5033084E5,5.034011E5,8.418787E5,2.6495432E6,-1.015989E5,-1.6214683E5,-9.224276E3,-7.8918734E4,1.19849914E5,2.4222584E4,1.1443268E5,1.987122E5,2.0372812E5,3.0340962E5,5.420095E5,3.632195E5,7.505198E5,1.1228941E6,1.2485612E4,2.9183082E6,-1.353751E5,-7.9305086E4,-1.8795988E5,-1.4910195E5,4.1039684E4,-3.898257E4,-9.375349E4,-4.7576492E4,1.0643339E5,3.0536647E5,-1.5475702E3,4.505475E4,1.0967747E5,2.8032538E5,2.6186347E5,1.0013447E5,2.7002506E4,1.9656744E5,3.2574044E5,1.9311939E5,4.8566478E5,7.790148E5,6.876287E5,3.106747E5,8.3033106E5,5.0279222E5,1.2345072E6,7.1787375E5,8.7541234E4,1.824043E5,-8.109724E3,-5.902652E3,-3.2866978E3,-4.6548687E3,-1.0688526E4,-8.979621E3,-7.8391562E3,-6.627625E3,4.6394052E2,3.5551997E3,-2.727453E3,2.0492954E3,-1.7125787E3,-4.8535522E3,-1.2245858E3,-3.3892908E3,9.72452E3,4.1367886E3,1.0952882E4,2.3434803E4,1.3151262E3,-1.057183E3,9.929507E3,2.1086086E3,4.314399E3,6.854801E3,1.55474795E4,-3.4159167E3,1.1796167E4,2.5449758E4,5.7207754E3,-6.2152876E3,1.0189114E4,-1.5226141E3,1.5469929E4,2.357528E4,3.893902E3,1.1224673E4,1.0949222E4,2.5280758E4,4.857336E4,3.068963E4,7.251079E4,1.9504484E4,1.192137E4,1.9718043E4,3.4454965E4,4.8494242E4,2.6271479E4,-2.104722E3,5.1506566E4,1.1422024E5,3.7353195E4,7.0005312E3],"categories":[],"categories_nodes":[],"categories_segments":[],"categories_sizes":[],"default_left":[0,0,0,0,0,0,0,0,0,0,0,0,0,0,0,0,0,0,0,0,0,0,0,0,0,0,0,0,0,0,0,0,0,0,0,0,0,0,0,0,0,0,0,0,0,0,0,0,0,0,0,0,0,0,0,0,0,0,0,0,0,0,0,0,0,0,0,0,0,0,0,0,0,0,0,0,0,0,0,0,0,0,0,0,0,0,0,0,0,0,0,0,0,0,0,0,0,0,0,0,0,0,0,0,0,0,0,0,0,0,0,0,0,0,0],"id":7,"left_children":[1,3,5,7,9,11,13,15,17,19,21,23,25,27,29,31,33,35,37,39,41,43,45,47,49,51,53,55,57,-1,59,61,63,65,67,69,71,73,75,77,79,81,83,85,87,89,91,-1,93,95,97,99,101,103,105,107,109,111,113,-1,-1,-1,-1,-1,-1,-1,-1,-1,-1,-1,-1,-1,-1,-1,-1,-1,-1,-1,-1,-1,-1,-1,-1,-1,-1,-1,-1,-1,-1,-1,-1,-1,-1,-1,-1,-1,-1,-1,-1,-1,-1,-1,-1,-1,-1,-1,-1,-1,-1,-1,-1,-1,-1,-1,-1],"loss_changes":[3.4625325E14,7.5911374E13,8.2791635E13,1.4876911E13,8.999928E12,1.9965457E13,2.7627662E13,4.7757016E12,5.6033007E12,2.1727921E12,1.5117404E12,3.1711958E12,2.032954E12,5.9606596E12,5.076173E12,1.8725156E12,8.946031E11,2.3888483E12,1.934866E12,6.146354E11,1.4892863E12,7.5179753E11,1.685738E12,1.5772429E12,1.4369811E12,3.9083028E12,1.354606E12,3.5961208E12,1.9617347E12,0E0,4.288676E11,4.4216982E11,2.763302E11,1.5943808E11,2.1121257E11,5.665322E11,1.2507982E12,5.5531956E11,6.244197E11,4.93074E11,1.3697378E11,6.778355E11,6.7053945E11,6.0767076E11,3.0952102E11,9.5049115E11,3.635936E11,0E0,1.1298134E12,1.0570653E12,3.6215377E11,1.2832138E12,1.311563E12,2.1570792E12,3.9570742E11,2.327478E12,6.635263E11,7.94631E12,1.6528966E11,0E0,0E0,0E0,0E0,0E0,0E0,0E0,0E0,0E0,0E0,0E0,0E0,0E0,0E0,0E0,0E0,0E0,0E0,0E0,0E0,0E0,0E0,0E0,0E0,0E0,0E0,0E0,0E0,0E0,0E0,0E0,0E0,0E0,0E0,0E0,0E0,0E0,0E0,0E0,0E0,0E0,0E0,0E0,0E0,0E0,0E0,0E0,0E0,0E0,0E0,0E0,0E0,0E0,0E0,0E0,0E0],"parents":[2147483647,0,0,1,1,2,2,3,3,4,4,5,5,6,6,7,7,8,8,9,9,10,10,11,11,12,12,13,13,14,14,15,15,16,16,17,17,18,18,19,19,20,20,21,21,22,22,23,23,24,24,25,25,26,26,27,27,28,28,30,30,31,31,32,32,33,33,34,34,35,35,36,36,37,37,38,38,39,39,40,40,41,41,42,42,43,43,44,44,45,45,46,46,48,48,49,49,50,50,51,51,52,52,53,53,54,54,55,55,56,56,57,57,58,58],"right_children":[2,4,6,8,10,12,14,16,18,20,22,24,26,28,30,32,34,36,38,40,42,44,46,48,50,52,54,56,58,-1,60,62,64,66,68,70,72,74,76,78,80,82,84,86,88,90,92,-1,94,96,98,100,102,104,106,108,110,112,114,-1,-1,-1,-1,-1,-1,-1,-1,-1,-1,-1,-1,-1,-1,-1,-1,-1,-1,-1,-1,-1,-1,-1,-1,-1,-1,-1,-1,-1,-1,-1,-1,-1,-1,-1,-1,-1,-1,-1,-1,-1,-1,-1,-1,-1,-1,-1,-1,-1,-1,-1,-1,-1,-1,-1,-1],"split_conditions":[3.16E3,2.22E3,4.57E3,1.53E3,2.78E3,3.92E3,6E0,6.4E3,5.002E3,4.064E3,3E0,3.47E3,3.5235E4,5.76E3,1.1E4,1.13E3,1.12E3,2.25E0,1.99E3,3E0,2.44E3,2.5E0,5E0,3.825E3,3.2112E4,1.8E4,4E0,3.6384E4,5.0529E4,1.2485612E4,6E0,8.9E2,2E0,8.5E2,1.41E3,1.79E3,2.5E0,3E0,4E0,2.5E0,2.64E3,2.5E0,3E0,9.92E3,1.8645E4,3.75E0,4.5E0,2.7002506E4,6E0,1.937E4,3.8012E4,5.3E3,2.0875E4,1.5E0,3.5E0,3.75E0,6E0,3.5235E4,2.5E0,8.7541234E4,1.824043E5,-8.109724E3,-5.902652E3,-3.2866978E3,-4.6548687E3,-1.0688526E4,-8.979621E3,-7.8391562E3,-6.627625E3,4.6394052E2,3.5551997E3,-2.727453E3,2.0492954E3,-1.7125787E3,-4.8535522E3,-1.2245858E3,-3.3892908E3,9.72452E3,4.1367886E3,1.0952882E4,2.3434803E4,1.3151262E3,-1.057183E3,9.929507E3,2.1086086E3,4.314399E3,6.854801E3,1.55474795E4,-3.4159167E3,1.1796167E4,2.5449758E4,5.7207754E3,-6.2152876E3,1.0189114E4,-1.5226141E3,1.5469929E4,2.357528E4,3.893902E3,1.1224673E4,1.0949222E4,2.5280758E4,4.857336E4,3.068963E4,7.251079E4,1.9504484E4,1.192137E4,1.9718043E4,3.4454965E4,4.8494242E4,2.6271479E4,-2.104722E3,5.1506566E4,1.1422024E5,3.7353195E4,7.0005312E3],"split_indices":[2,2,2,2,2,2,1,3,3,3,1,2,3,2,3,2,2,1,2,4,2,4,0,3,3,3,0,3,3,0,0,2,4,2,2,2,4,0,0,1,2,1,0,3,3,1,1,0,0,3,3,3,3,4,1,1,0,3,4,0,0,0,0,0,0,0,0,0,0,0,0,0,0,0,0,0,0,0,0,0,0,0,0,0,0,0,0,0,0,0,0,0,0,0,0,0,0,0,0,0,0,0,0,0,0,0,0,0,0,0,0,0,0,0,0],"split_type":[0,0,0,0,0,0,0,0,0,0,0,0,0,0,0,0,0,0,0,0,0,0,0,0,0,0,0,0,0,0,0,0,0,0,0,0,0,0,0,0,0,0,0,0,0,0,0,0,0,0,0,0,0,0,0,0,0,0,0,0,0,0,0,0,0,0,0,0,0,0,0,0,0,0,0,0,0,0,0,0,0,0,0,0,0,0,0,0,0,0,0,0,0,0,0,0,0,0,0,0,0,0,0,0,0,0,0,0,0,0,0,0,0,0,0],"sum_hessian":[1.729E4,1.5301E4,1.989E3,1.1004E4,4.297E3,1.717E3,2.72E2,5.239E3,5.765E3,3.032E3,1.265E3,1.306E3,4.11E2,2.64E2,8E0,2.5E3,2.739E3,1.595E3,4.17E3,2.59E2,2.773E3,9.91E2,2.74E2,6.98E2,6.08E2,3.2E2,9.1E1,2.02E2,6.2E1,1E0,7E0,9.92E2,1.508E3,9.15E2,1.824E3,5.93E2,1.002E3,2.829E3,1.341E3,2.43E2,1.6E1,1.24E3,1.533E3,9.65E2,2.6E1,1.66E2,1.08E2,1.3E1,6.85E2,5.04E2,1.04E2,2.61E2,5.9E1,1.1E1,8E1,1.51E2,5.1E1,4.7E1,1.5E1,4E0,3E0,3.86E2,6.06E2,7.63E2,7.45E2,2.18E2,6.97E2,1.24E3,5.84E2,2.89E2,3.04E2,8.39E2,1.63E2,1.5E2,2.679E3,6.27E2,7.14E2,5E1,1.93E2,1.2E1,4E0,5.12E2,7.28E2,2.7E1,1.506E3,5.23E2,4.42E2,2.4E1,2E0,1.52E2,1.4E1,1.02E2,6E0,6.64E2,2.1E1,4.56E2,4.8E1,2.3E1,8.1E1,1.9E1,2.42E2,2.5E1,3.4E1,2E0,9E0,4.5E1,3.5E1,7.8E1,7.3E1,4.9E1,2E0,4.1E1,6E0,1.4E1,1E0],"tree_param":{"num_deleted":"0","num_feature":"5","num_nodes":"115","size_leaf_vector":"1"}},{"base_weights":[3.7409314E2,-5.1669375E4,3.4847972E5,-1.01060516E5,3.0670027E4,2.4918838E5,7.1878206E5,-1.3435881E5,-7.466028E4,-2.9741272E3,8.90228E4,2.0791088E5,3.8269475E5,6.804811E5,2.4317285E6,-9.6942766E4,-1.5577756E5,-4.0463027E4,-1.01212266E5,4.509315E4,-1.6188145E4,1.9232788E5,7.934551E4,3.9254384E5,1.9862561E5,4.166686E5,2.968511E5,5.799584E5,9.3583256E5,1.4674509E6,1.7556412E5,-1.4194597E5,-8.63632E4,-1.790477E5,-1.450009E5,-2.0334757E3,-6.02088E4,-1.12450016E5,-8.41117E4,1.0619055E5,1.6657623E4,-4.048473E4,9.054674E3,1.7430175E5,3.6169528E5,5.4750027E4,1.1751257E5,3.9942003E5,-1.01636096E3,1.6575192E5,2.4906364E5,4.5961772E5,2.9018816E5,2.7434938E5,6.273291E5,5.0033256E5,7.1796525E5,1.04055144E6,6.095514E5,8.4039586E4,3.1136639E4,-9.435409E3,-6.6465845E3,-3.385311E3,-5.3342363E3,-9.12102E3,-6.630601E3,-5.830951E3,-7.7487886E3,-1.8199036E3,2.0035697E3,-3.55102E3,1.3987845E2,-6.906793E3,-5.2557397E3,-5.5214937E3,-3.5141016E3,3.5545925E3,8.952117E3,-3.7273856E2,6.1266484E3,-2.0693005E3,2.0115887E4,-7.5428064E2,1.6399928E3,7.2365796E3,1.364778E4,2.5113E3,2.0130166E4,4.7710176E3,1.7820957E3,6.6088335E3,3.5953867E3,2.0401492E4,4.5606855E3,7.9851626E3,2.236206E4,1.3717447E4,6.5736626E3,1.5775614E4,2.6238176E4,2.9217209E4,1.3319564E4,9.594623E3,1.7963475E4,5.1497383E4,1.3014611E4,2.6741541E4,1.1316649E4,3.855418E4,2.0558176E4,3.9708273E4,6.071307E4,2.296331E4,3.6641047E4],"categories":[],"categories_nodes":[],"categories_segments":[],"categories_sizes":[],"default_left":[0,0,0,0,0,0,0,0,0,0,0,0,0,0,0,0,0,0,0,0,0,0,0,0,0,0,0,0,0,0,0,0,0,0,0,0,0,0,0,0,0,0,0,0,0,0,0,0,0,0,0,0,0,0,0,0,0,0,0,0,0,0,0,0,0,0,0,0,0,0,0,0,0,0,0,0,0,0,0,0,0,0,0,0,0,0,0,0,0,0,0,0,0,0,0,0,0,0,0,0,0,0,0,0,0,0,0,0,0,0,0,0,0,0,0],"id":8,"left_children":[1,3,5,7,9,11,13,15,17,19,21,23,25,27,29,31,33,35,37,39,41,43,45,47,49,51,53,55,57,59,-1,61,63,65,67,69,71,73,75,77,79,81,83,85,87,89,91,93,-1,95,97,99,101,103,105,107,109,111,113,-1,-1,-1,-1,-1,-1,-1,-1,-1,-1,-1,-1,-1,-1,-1,-1,-1,-1,-1,-1,-1,-1,-1,-1,-1,-1,-1,-1,-1,-1,-1,-1,-1,-1,-1,-1,-1,-1,-1,-1,-1,-1,-1,-1,-1,-1,-1,-1,-1,-1,-1,-1,-1,-1,-1,-1],"loss_changes":[3.1327257E14,6.1180534E13,8.251171E13,8.255984E12,1.1074842E13,9.702121E12,2.9508808E13,3.3163355E12,4.760208E12,2.2739742E12,2.0471475E12,2.2501392E12,1.09538024E12,1.1418842E13,5.2572665E12,7.095305E11,6.365863E11,1.7413725E12,5.580228E11,1.3394549E12,1.7225532E12,4.7429085E11,1.7659016E12,1.8981218E11,2.1059349E12,1.4799895E12,7.351231E11,3.344043E12,3.8075472E12,2.1480604E11,0E0,9.58928E10,4.591169E11,1.061117E11,4.9463008E11,1.1300536E12,1.0328972E12,3.2066503E11,4.1990488E11,6.1373704E11,1.348849E12,5.877439E11,7.903858E11,4.3016572E11,1.836442E11,8.9030237E11,4.847053E11,1.2995946E11,0E0,1.2685484E12,1.4773429E12,1.899768E12,3.9033556E11,7.433198E11,7.6634364E11,1.930139E12,1.654871E12,3.1872432E12,2.9330978E11,0E0,0E0,0E0,0E0,0E0,0E0,0E0,0E0,0E0,0E0,0E0,0E0,0E0,0E0,0E0,0E0,0E0,0E0,0E0,0E0,0E0,0E0,0E0,0E0,0E0,0E0,0E0,0E0,0E0,0E0,0E0,0E0,0E0,0E0,0E0,0E0,0E0,0E0,0E0,0E0,0E0,0E0,0E0,0E0,0E0,0E0,0E0,0E0,0E0,0E0,0E0,0E0,0E0,0E0,0E0,0E0],"parents":[2147483647,0,0,1,1,2,2,3,3,4,4,5,5,6,6,7,7,8,8,9,9,10,10,11,11,12,12,13,13,14,14,15,15,16,16,17,17,18,18,19,19,20,20,21,21,22,22,23,23,24,24,25,25,26,26,27,27,28,28,29,29,31,31,32,32,33,33,34,34,35,35,36,36,37,37,38,38,39,39,40,40,41,41,42,42,43,43,44,44,45,45,46,46,47,47,49,49,50,50,51,51,52,52,53,53,54,54,55,55,56,56,57,57,58,58],"right_children":[2,4,6,8,10,12,14,16,18,20,22,24,26,28,30,32,34,36,38,40,42,44,46,48,50,52,54,56,58,60,-1,62,64,66,68,70,72,74,76,78,80,82,84,86,88,90,92,94,-1,96,98,100,102,104,106,108,110,112,114,-1,-1,-1,-1,-1,-1,-1,-1,-1,-1,-1,-1,-1,-1,-1,-1,-1,-1,-1,-1,-1,-1,-1,-1,-1,-1,-1,-1,-1,-1,-1,-1,-1,-1,-1,-1,-1,-1,-1,-1,-1,-1,-1,-1,-1,-1,-1,-1,-1,-1,-1,-1,-1,-1,-1,-1],"split_conditions":[3.07E3,2.01E3,4.18E3,1.41E3,2.55E3,3.73E3,6E0,5.16E3,6.589E3,5.002E3,4.425E3,4.24E3,5E0,5.16E3,2.178E4,9.1E2,1.02E3,2E0,9.812E3,2.5E0,2.26E3,3E0,2.83E3,4.5E0,3.4E3,2.5752E4,2.5E0,3.75E0,4.705E4,6E0,1.7556412E5,7E2,2E0,1.25E0,7.202E3,1.5E0,2.5E0,1.75E0,1.64E3,2E0,3E0,3.75E0,9.143E3,2.88E3,2.64E3,4E0,5E0,7E0,-1.01636096E3,2.5E0,3.2112E4,3E0,1.5E0,1.016E4,3.5E0,6.0984E4,4.0164E4,4E0,5.76E3,8.4039586E4,3.1136639E4,-9.435409E3,-6.6465845E3,-3.385311E3,-5.3342363E3,-9.12102E3,-6.630601E3,-5.830951E3,-7.7487886E3,-1.8199036E3,2.0035697E3,-3.55102E3,1.3987845E2,-6.906793E3,-5.2557397E3,-5.5214937E3,-3.5141016E3,3.5545925E3,8.952117E3,-3.7273856E2,6.1266484E3,-2.0693005E3,2.0115887E4,-7.5428064E2,1.6399928E3,7.2365796E3,1.364778E4,2.5113E3,2.0130166E4,4.7710176E3,1.7820957E3,6.6088335E3,3.5953867E3,2.0401492E4,4.5606855E3,7.9851626E3,2.236206E4,1.3717447E4,6.5736626E3,1.5775614E4,2.6238176E4,2.9217209E4,1.3319564E4,9.594623E3,1.7963475E4,5.1497383E4,1.3014611E4,2.6741541E4,1.1316649E4,3.855418E4,2.0558176E4,3.9708273E4,6.071307E4,2.296331E4,3.6641047E4],"split_indices":[2,2,2,2,2,2,1,3,3,3,3,3,0,2,3,2,2,1,3,1,2,4,2,1,2,3,4,1,3,0,0,2,4,1,3,4,4,1,2,4,1,1,3,2,2,0,0,0,0,4,3,1,4,3,1,3,3,1,2,0,0,0,0,0,0,0,0,0,0,0,0,0,0,0,0,0,0,0,0,0,0,0,0,0,0,0,0,0,0,0,0,0,0,0,0,0,0,0,0,0,0,0,0,0,0,0,0,0,0,0,0,0,0,0,0],"split_type":[0,0,0,0,0,0,0,0,0,0,0,0,0,0,0,0,0,0,0,0,0,0,0,0,0,0,0,0,0,0,0,0,0,0,0,0,0,0,0,0,0,0,0,0,0,0,0,0,0,0,0,0,0,0,0,0,0,0,0,0,0,0,0,0,0,0,0,0,0,0,0,0,0,0,0,0,0,0,0,0,0,0,0,0,0,0,0,0,0,0,0,0,0,0,0,0,0,0,0,0,0,0,0,0,0,0,0,0,0,0,0,0,0,0,0],"sum_hessian":[1.729E4,1.5042E4,2.248E3,9.402E3,5.64E3,1.774E3,4.74E2,4.156E3,5.246E3,3.578E3,2.062E3,1.357E3,4.17E2,4.65E2,9E0,1.515E3,2.641E3,2.294E3,2.952E3,7.71E2,2.807E3,1.75E2,1.887E3,6.3E1,1.294E3,2.96E2,1.21E2,3.36E2,1.29E2,6E0,3E0,2.86E2,1.229E3,8.31E2,1.81E3,7.79E2,1.515E3,1.778E3,1.174E3,2.44E2,5.27E2,1.43E3,1.377E3,1.6E2,1.5E1,1.149E3,7.38E2,6.2E1,1E0,7.86E2,5.08E2,2.19E2,7.7E1,1.15E2,6E0,2.16E2,1.2E2,9.6E1,3.3E1,4E0,2E0,4.3E1,2.43E2,6.43E2,5.86E2,7.72E2,5.9E1,4.74E2,1.336E3,4.29E2,3.5E2,1.293E3,2.22E2,3.91E2,1.387E3,4.02E2,7.72E2,1.66E2,7.8E1,4.3E2,9.7E1,1.428E3,2E0,6.83E2,6.94E2,1.25E2,3.5E1,2E0,1.3E1,3.66E2,7.83E2,5.57E2,1.81E2,6E1,2E0,7.71E2,1.5E1,4.17E2,9.1E1,7E1,1.49E2,4E0,7.3E1,6E1,5.5E1,2E0,4E0,1.91E2,2.5E1,1.01E2,1.9E1,4.2E1,5.4E1,1.7E1,1.6E1],"tree_param":{"num_deleted":"0","num_feature":"5","num_nodes":"115","size_leaf_vector":"1"}},{"base_weights":[4.0269916E2,-4.5767645E4,3.554269E5,-8.840189E4,4.9367887E4,2.810894E5,8.2193394E5,-1.2052186E5,-5.6795844E4,1.8489787E4,1.0942274E5,2.2592977E5,4.553917E5,7.6356956E5,2.4491155E6,-8.381035E4,-1.4115734E5,-1.3912983E4,-7.537813E4,1.01814266E5,1.0168408E4,9.4719305E4,1.6397933E5,1.8306447E5,2.7835778E5,5.034471E5,3.5305988E5,6.7987994E5,1.0211159E6,1.1395057E4,2.6982798E6,-1.13977625E5,-6.6734414E4,-1.6344683E5,-1.28397664E5,3.1205414E4,-4.2814996E4,-9.107618E4,-5.3421082E4,5.2202266E4,1.4835025E5,-2.0465623E4,2.4346771E4,3.141187E4,1.03049445E5,2.3434645E5,1.176355E5,6.896046E5,1.7714086E5,4.6179022E5,2.6298138E5,4.6014038E5,6.745686E5,3.671867E5,-8.767454E4,7.5224575E5,4.5527447E5,1.1234142E6,6.504011E5,8.0678E4,1.6898048E5,-7.0901245E3,-5.0592163E3,-2.1676675E3,-4.126069E3,-7.3136445E3,-8.702828E3,-4.888868E3,-6.85806E3,-2.0656523E2,3.0487366E3,-2.896479E3,1.7939501E3,-4.1908745E3,-5.9760913E3,-9.954095E1,-2.9420544E3,9.666904E3,2.1053708E3,1.1954839E4,5.93337E3,5.3711743E3,-1.2421005E3,6.9472644E2,2.7945376E3,6.240671E3,-7.8015106E2,3.69908E3,6.9436978E3,1.5002245E4,5.5192886E3,9.979366E1,7.0984507E3,8.492799E3,3.6979465E4,6.4965337E3,1.00661045E4,1.0942385E4,2.590042E4,1.3970322E4,7.9188667E3,7.556905E3,2.4074613E4,3.6935633E4,1.7833416E4,-7.3571284E3,1.881507E4,-5.8146265E3,6.69936E2,3.1091764E4,4.3892137E4,2.3830627E4,-2.605896E3,4.6379258E4,1.0689504E5,3.390013E4,5.909492E3],"categories":[],"categories_nodes":[],"categories_segments":[],"categories_sizes":[],"default_left":[0,0,0,0,0,0,0,0,0,0,0,0,0,0,0,0,0,0,0,0,0,0,0,0,0,0,0,0,0,0,0,0,0,0,0,0,0,0,0,0,0,0,0,0,0,0,0,0,0,0,0,0,0,0,0,0,0,0,0,0,0,0,0,0,0,0,0,0,0,0,0,0,0,0,0,0,0,0,0,0,0,0,0,0,0,0,0,0,0,0,0,0,0,0,0,0,0,0,0,0,0,0,0,0,0,0,0,0,0,0,0,0,0,0,0,0,0],"id":9,"left_children":[1,3,5,7,9,11,13,15,17,19,21,23,25,27,29,31,33,35,37,39,41,43,45,47,49,51,53,55,57,-1,59,61,63,65,67,69,71,73,75,77,79,81,83,85,87,89,91,93,95,97,99,101,103,105,107,109,111,113,115,-1,-1,-1,-1,-1,-1,-1,-1,-1,-1,-1,-1,-1,-1,-1,-1,-1,-1,-1,-1,-1,-1,-1,-1,-1,-1,-1,-1,-1,-1,-1,-1,-1,-1,-1,-1,-1,-1,-1,-1,-1,-1,-1,-1,-1,-1,-1,-1,-1,-1,-1,-1,-1,-1,-1,-1,-1,-1],"loss_changes":[2.834432E14,6.2069764E13,6.8780126E13,1.0720616E13,8.780318E12,1.6414736E13,2.4056598E13,3.9577788E12,4.2446294E12,2.1685333E12,1.2743575E12,2.886323E12,1.8483123E12,5.017562E12,4.3660817E12,9.649678E11,9.3263285E11,2.1034041E12,1.2763204E12,6.479387E11,1.236631E12,6.659821E11,1.0812014E12,2.0442409E12,1.5313865E12,1.7497797E12,8.7272666E11,2.9570347E12,1.6585117E12,0E0,4.5921337E11,2.2806947E11,4.4231452E11,1.9628923E11,5.6003605E11,6.629803E11,1.171285E12,4.3721425E11,4.3250614E11,1.8989846E11,3.6489475E11,5.069511E11,6.4083E11,6.562457E11,1.157069E12,1.05817886E12,5.821977E11,8.221203E10,7.9008524E11,4.875784E11,8.886933E11,1.4117356E12,8.376591E11,6.694948E11,1.6020742E10,1.9437579E12,5.8783066E11,7.5528845E12,1.5490351E11,0E0,0E0,0E0,0E0,0E0,0E0,0E0,0E0,0E0,0E0,0E0,0E0,0E0,0E0,0E0,0E0,0E0,0E0,0E0,0E0,0E0,0E0,0E0,0E0,0E0,0E0,0E0,0E0,0E0,0E0,0E0,0E0,0E0,0E0,0E0,0E0,0E0,0E0,0E0,0E0,0E0,0E0,0E0,0E0,0E0,0E0,0E0,0E0,0E0,0E0,0E0,0E0,0E0,0E0,0E0,0E0,0E0,0E0],"parents":[2147483647,0,0,1,1,2,2,3,3,4,4,5,5,6,6,7,7,8,8,9,9,10,10,11,11,12,12,13,13,14,14,15,15,16,16,17,17,18,18,19,19,20,20,21,21,22,22,23,23,24,24,25,25,26,26,27,27,28,28,30,30,31,31,32,32,33,33,34,34,35,35,36,36,37,37,38,38,39,39,40,40,41,41,42,42,43,43,44,44,45,45,46,46,47,47,48,48,49,49,50,50,51,51,52,52,53,53,54,54,55,55,56,56,57,57,58,58],"right_children":[2,4,6,8,10,12,14,16,18,20,22,24,26,28,30,32,34,36,38,40,42,44,46,48,50,52,54,56,58,-1,60,62,64,66,68,70,72,74,76,78,80,82,84,86,88,90,92,94,96,98,100,102,104,106,108,110,112,114,116,-1,-1,-1,-1,-1,-1,-1,-1,-1,-1,-1,-1,-1,-1,-1,-1,-1,-1,-1,-1,-1,-1,-1,-1,-1,-1,-1,-1,-1,-1,-1,-1,-1,-1,-1,-1,-1,-1,-1,-1,-1,-1,-1,-1,-1,-1,-1,-1,-1,-1,-1,-1,-1,-1,-1,-1,-1,-1],"split_conditions":[3.16E3,2.16E3,4.57E3,1.53E3,2.7E3,3.92E3,6E0,5.12E3,5.16E3,4.064E3,3E0,3E0,5E0,5.76E3,1.1E4,1.13E3,1.12E3,2.25E0,1.89E3,2.34E3,2.31E3,2.25E0,5.61E3,3E0,4.132E3,3.75E0,1.05415E5,3.6384E4,5.0529E4,1.1395057E4,6E0,8.5E2,2E0,7.216E3,7.108E3,1.5E0,2.5E0,2E0,6.05E3,3E0,3.052E3,3E0,1.2558E4,9.01E3,9.736E3,5E0,2.78E3,2E0,8.316E3,3.26E3,3.4222E4,5.85E3,3.5235E4,4.425E3,3.5E0,1.3468E4,6E0,3.5235E4,2.5E0,8.0678E4,1.6898048E5,-7.0901245E3,-5.0592163E3,-2.1676675E3,-4.126069E3,-7.3136445E3,-8.702828E3,-4.888868E3,-6.85806E3,-2.0656523E2,3.0487366E3,-2.896479E3,1.7939501E3,-4.1908745E3,-5.9760913E3,-9.954095E1,-2.9420544E3,9.666904E3,2.1053708E3,1.1954839E4,5.93337E3,5.3711743E3,-1.2421005E3,6.9472644E2,2.7945376E3,6.240671E3,-7.8015106E2,3.69908E3,6.9436978E3,1.5002245E4,5.5192886E3,9.979366E1,7.0984507E3,8.492799E3,3.6979465E4,6.4965337E3,1.00661045E4,1.0942385E4,2.590042E4,1.3970322E4,7.9188667E3,7.556905E3,2.4074613E4,3.6935633E4,1.7833416E4,-7.3571284E3,1.881507E4,-5.8146265E3,6.69936E2,3.1091764E4,4.3892137E4,2.3830627E4,-2.605896E3,4.6379258E4,1.0689504E5,3.390013E4,5.909492E3],"split_indices":[2,2,2,2,2,2,1,3,3,3,1,1,0,2,3,2,2,1,2,2,2,1,3,0,3,1,3,3,3,0,0,2,4,3,3,4,4,4,3,0,3,0,3,3,3,0,2,1,3,2,3,3,3,3,1,3,0,3,4,0,0,0,0,0,0,0,0,0,0,0,0,0,0,0,0,0,0,0,0,0,0,0,0,0,0,0,0,0,0,0,0,0,0,0,0,0,0,0,0,0,0,0,0,0,0,0,0,0,0,0,0,0,0,0,0,0,0],"split_type":[0,0,0,0,0,0,0,0,0,0,0,0,0,0,0,0,0,0,0,0,0,0,0,0,0,0,0,0,0,0,0,0,0,0,0,0,0,0,0,0,0,0,0,0,0,0,0,0,0,0,0,0,0,0,0,0,0,0,0,0,0,0,0,0,0,0,0,0,0,0,0,0,0,0,0,0,0,0,0,0,0,0,0,0,0,0,0,0,0,0,0,0,0,0,0,0,0,0,0,0,0,0,0,0,0,0,0,0,0,0,0,0,0,0,0,0,0],"sum_hessian":[1.729E4,1.5301E4,1.989E3,1.0566E4,4.735E3,1.717E3,2.72E2,5.239E3,5.327E3,3.128E3,1.607E3,1.306E3,4.11E2,2.64E2,8E0,1.887E3,3.352E3,1.611E3,3.716E3,2.83E2,2.845E3,1.268E3,3.39E2,7.21E2,5.85E2,2.77E2,1.34E2,2.02E2,6.2E1,1E0,7E0,6.8E2,1.207E3,1.216E3,2.136E3,6.29E2,9.82E2,2.165E3,1.551E3,1.38E2,1.45E2,9E2,1.945E3,1.48E2,1.12E3,1.33E2,2.06E2,7E0,7.14E2,4.3E1,5.42E2,2.24E2,5.3E1,1.3E2,4E0,1.51E2,5.1E1,4.7E1,1.5E1,4E0,3E0,2.11E2,4.69E2,4.88E2,7.19E2,4.7E2,7.46E2,4.78E2,1.658E3,2.88E2,3.41E2,8.24E2,1.58E2,1.728E3,4.37E2,1.48E2,1.403E3,8E0,1.3E2,3.4E1,1.11E2,2.9E1,8.71E2,1.462E3,4.83E2,4.9E1,9.9E1,6.2E2,5E2,8.6E1,4.7E1,3.6E1,1.7E2,1E0,6E0,2.44E2,4.7E2,9E0,3.4E1,4.67E2,7.5E1,1.5E1,2.09E2,4.3E1,1E1,2E0,1.28E2,3E0,1E0,7.7E1,7.4E1,4.9E1,2E0,4.1E1,6E0,1.4E1,1E0],"tree_param":{"num_deleted":"0","num_feature":"5","num_nodes":"117","size_leaf_vector":"1"}},{"base_weights":[4.2809232E2,-4.081939E4,3.603342E5,-7.765176E4,6.772982E4,2.8350284E5,7.828532E5,-1.1450458E5,-4.7204727E4,3.961177E4,1.26682266E5,2.270523E5,4.3284712E5,7.2648275E5,2.3556658E6,-8.004979E4,-1.3435706E5,-5.2237344E3,-6.2791094E4,1.6165361E5,3.3839508E4,2.3746997E5,1.1522426E5,1.8325483E5,2.7408178E5,4.7858553E5,3.3545366E5,6.4635994E5,9.7312494E5,1.111018E4,2.594573E6,-1.0919161E5,-6.3287348E4,-1.6197953E5,-1.25080875E5,4.0811824E4,-3.0905512E4,-7.981655E4,-3.290602E4,1.4095288E5,3.752664E5,2.0113172E4,5.7924312E4,2.106075E3,2.4570989E5,1.1088377E5,2.7948197E5,5.757998E5,1.7946334E5,4.779296E5,2.5812983E5,4.3727394E5,6.418545E5,3.489148E5,-8.431975E4,7.151268E5,4.3291894E5,1.0704368E6,6.203692E5,7.7450875E4,1.626437E5,-7.2357446E3,-5.0371978E3,-2.0613406E3,-3.9249067E3,-8.878173E3,-7.614386E3,-4.668529E3,-6.59644E3,3.9314255E2,3.495391E3,-2.3414744E3,1.7388268E3,-9.213466E2,-4.162063E3,-2.4758088E3,-6.8736945E2,8.323663E3,2.7695251E3,7.332975E3,2.0704285E4,8.321587E2,6.558376E3,5.0654775E3,1.9630137E3,-5.765091E3,3.014175E3,2.263537E4,1.1703359E4,4.323816E3,6.973768E3,9.734591E3,2.2313607E4,7.7636377E3,4.021968E4,9.855116E3,5.3898667E3,2.4651297E4,-1.6384625E3,1.8000354E4,1.1715371E4,3.246325E4,2.0129768E4,3.5130824E4,1.7022805E4,-7.1118906E3,1.7881611E4,-5.596578E3,6.531875E2,1.7516934E4,3.7773355E4,1.400895E4,2.6367494E4,4.411551E4,1.0231383E5,3.2318125E4,5.761755E3],"categories":[],"categories_nodes":[],"categories_segments":[],"categories_sizes":[],"default_left":[0,0,0,0,0,0,0,0,0,0,0,0,0,0,0,0,0,0,0,0,0,0,0,0,0,0,0,0,0,0,0,0,0,0,0,0,0,0,0,0,0,0,0,0,0,0,0,0,0,0,0,0,0,0,0,0,0,0,0,0,0,0,0,0,0,0,0,0,0,0,0,0,0,0,0,0,0,0,0,0,0,0,0,0,0,0,0,0,0,0,0,0,0,0,0,0,0,0,0,0,0,0,0,0,0,0,0,0,0,0,0,0,0,0,0,0,0],"id":10,"left_children":[1,3,5,7,9,11,13,15,17,19,21,23,25,27,29,31,33,35,37,39,41,43,45,47,49,51,53,55,57,-1,59,61,63,65,67,69,71,73,75,77,79,81,83,85,87,89,91,93,95,97,99,101,103,105,107,109,111,113,115,-1,-1,-1,-1,-1,-1,-1,-1,-1,-1,-1,-1,-1,-1,-1,-1,-1,-1,-1,-1,-1,-1,-1,-1,-1,-1,-1,-1,-1,-1,-1,-1,-1,-1,-1,-1,-1,-1,-1,-1,-1,-1,-1,-1,-1,-1,-1,-1,-1,-1,-1,-1,-1,-1,-1,-1,-1,-1],"loss_changes":[2.5670343E14,6.2032162E13,5.7496778E13,1.2992528E13,6.51112E12,1.2598154E13,2.2492844E13,3.5734673E12,4.1514036E12,1.8704994E12,1.5835154E12,2.2052224E12,1.6747604E12,4.607854E12,4.0107738E12,9.3001037E11,8.311978E11,2.033592E12,2.3516246E12,4.777383E11,8.3987137E11,2.28329E11,7.9033585E11,7.4501325E11,1.5870617E12,1.5944185E12,7.9225684E11,2.6699765E12,1.4985577E12,0E0,4.6756423E11,1.9518194E11,4.0614442E11,9.862277E10,5.2882204E11,5.8999924E11,1.1563235E12,6.180475E11,5.3426035E11,2.331569E11,2.8013887E10,6.228682E11,7.43416E11,4.110324E10,1.6877722E11,7.7232026E11,3.2323745E11,3.5574894E11,6.942412E11,3.0141474E11,1.1048594E12,1.392706E12,7.4972345E11,6.117539E11,1.4906921E10,1.972103E12,6.0226326E11,7.006455E12,1.3559765E11,0E0,0E0,0E0,0E0,0E0,0E0,0E0,0E0,0E0,0E0,0E0,0E0,0E0,0E0,0E0,0E0,0E0,0E0,0E0,0E0,0E0,0E0,0E0,0E0,0E0,0E0,0E0,0E0,0E0,0E0,0E0,0E0,0E0,0E0,0E0,0E0,0E0,0E0,0E0,0E0,0E0,0E0,0E0,0E0,0E0,0E0,0E0,0E0,0E0,0E0,0E0,0E0,0E0,0E0,0E0,0E0,0E0,0E0],"parents":[2147483647,0,0,1,1,2,2,3,3,4,4,5,5,6,6,7,7,8,8,9,9,10,10,11,11,12,12,13,13,14,14,15,15,16,16,17,17,18,18,19,19,20,20,21,21,22,22,23,23,24,24,25,25,26,26,27,27,28,28,30,30,31,31,32,32,33,33,34,34,35,35,36,36,37,37,38,38,39,39,40,40,41,41,42,42,43,43,44,44,45,45,46,46,47,47,48,48,49,49,50,50,51,51,52,52,53,53,54,54,55,55,56,56,57,57,58,58],"right_children":[2,4,6,8,10,12,14,16,18,20,22,24,26,28,30,32,34,36,38,40,42,44,46,48,50,52,54,56,58,-1,60,62,64,66,68,70,72,74,76,78,80,82,84,86,88,90,92,94,96,98,100,102,104,106,108,110,112,114,116,-1,-1,-1,-1,-1,-1,-1,-1,-1,-1,-1,-1,-1,-1,-1,-1,-1,-1,-1,-1,-1,-1,-1,-1,-1,-1,-1,-1,-1,-1,-1,-1,-1,-1,-1,-1,-1,-1,-1,-1,-1,-1,-1,-1,-1,-1,-1,-1,-1,-1,-1,-1,-1,-1,-1,-1,-1,-1],"split_conditions":[3.23E3,2.31E3,4.57E3,1.53E3,2.83E3,3.92E3,6E0,5.16E3,5.002E3,3.76E3,4.635E3,3E0,5E0,5.76E3,1.1E4,1.13E3,1.02E3,2.25E0,2.01E3,3E0,2.61E3,2.25E0,2.5E0,3E0,4.132E3,3.75E0,1.05415E5,3.6384E4,5.0529E4,1.111018E4,6E0,7.9E2,2E0,8.5E2,3E0,1.79E3,2.75E0,3E0,9.264E3,3.5E0,2.456E3,3.25E0,4E0,2.84E3,2.84E3,1.0031E4,3.09E3,3.5E3,3.2112E4,4.75E0,2E0,1.5E0,3.5235E4,4.425E3,3.5E0,2.75E0,3.5E0,3.5235E4,2.5E0,7.7450875E4,1.626437E5,-7.2357446E3,-5.0371978E3,-2.0613406E3,-3.9249067E3,-8.878173E3,-7.614386E3,-4.668529E3,-6.59644E3,3.9314255E2,3.495391E3,-2.3414744E3,1.7388268E3,-9.213466E2,-4.162063E3,-2.4758088E3,-6.8736945E2,8.323663E3,2.7695251E3,7.332975E3,2.0704285E4,8.321587E2,6.558376E3,5.0654775E3,1.9630137E3,-5.765091E3,3.014175E3,2.263537E4,1.1703359E4,4.323816E3,6.973768E3,9.734591E3,2.2313607E4,7.7636377E3,4.021968E4,9.855116E3,5.3898667E3,2.4651297E4,-1.6384625E3,1.8000354E4,1.1715371E4,3.246325E4,2.0129768E4,3.5130824E4,1.7022805E4,-7.1118906E3,1.7881611E4,-5.596578E3,6.531875E2,1.7516934E4,3.7773355E4,1.400895E4,2.6367494E4,4.411551E4,1.0231383E5,3.2318125E4,5.761755E3],"split_indices":[2,2,2,2,2,2,1,3,3,3,3,1,0,2,3,2,2,1,2,4,2,1,4,0,3,1,3,3,3,0,0,2,4,2,0,2,1,0,3,1,2,1,0,2,2,3,2,2,3,1,4,4,3,3,1,1,1,3,4,0,0,0,0,0,0,0,0,0,0,0,0,0,0,0,0,0,0,0,0,0,0,0,0,0,0,0,0,0,0,0,0,0,0,0,0,0,0,0,0,0,0,0,0,0,0,0,0,0,0,0,0,0,0,0,0,0,0],"split_type":[0,0,0,0,0,0,0,0,0,0,0,0,0,0,0,0,0,0,0,0,0,0,0,0,0,0,0,0,0,0,0,0,0,0,0,0,0,0,0,0,0,0,0,0,0,0,0,0,0,0,0,0,0,0,0,0,0,0,0,0,0,0,0,0,0,0,0,0,0,0,0,0,0,0,0,0,0,0,0,0,0,0,0,0,0,0,0,0,0,0,0,0,0,0,0,0,0,0,0,0,0,0,0,0,0,0,0,0,0,0,0,0,0,0,0,0,0],"sum_hessian":[1.729E4,1.5513E4,1.777E3,1.1583E4,3.93E3,1.505E3,2.72E2,5.239E3,6.344E3,2.662E3,1.268E3,1.094E3,4.11E2,2.64E2,8E0,1.917E3,3.322E3,1.718E3,4.626E3,1.19E2,2.543E3,1.17E2,1.151E3,5.69E2,5.25E2,2.77E2,1.34E2,2.02E2,6.2E1,1E0,7E0,6.98E2,1.219E3,8.31E2,2.491E3,6.15E2,1.103E3,2.946E3,1.68E3,1.1E2,9E0,1.621E3,9.22E2,4E0,1.13E2,1.123E3,2.8E1,4E0,5.65E2,3.6E1,4.89E2,2.24E2,5.3E1,1.3E2,4E0,1.51E2,5.1E1,4.7E1,1.5E1,4E0,3E0,1.31E2,5.67E2,4.99E2,7.2E2,3.12E2,5.19E2,4.45E2,2.046E3,2.89E2,3.26E2,8.88E2,2.15E2,1.56E2,2.79E3,8.99E2,7.81E2,8.4E1,2.6E1,2E0,7E0,1.573E3,4.8E1,2.76E2,6.46E2,1E0,3E0,4E0,1.09E2,6.08E2,5.15E2,2E1,8E0,2E0,2E0,4.52E2,1.13E2,3.5E1,1E0,9E1,3.99E2,2.9E1,1.95E2,4.3E1,1E1,2E0,1.28E2,3E0,1E0,1.6E1,1.35E2,2.1E1,3E1,4.1E1,6E0,1.4E1,1E0],"tree_param":{"num_deleted":"0","num_feature":"5","num_nodes":"117","size_leaf_vector":"1"}},{"base_weights":[4.55001E2,-3.6232266E4,3.665587E5,-7.377357E4,6.897208E4,2.8685E5,7.45657E5,-1.0878813E5,-4.484527E4,3.7651273E4,1.2558779E5,2.2896706E5,4.1147316E5,7.085663E5,1.531431E5,-8.2586016E4,-1.3266503E5,-4.9606284E3,-5.965332E4,1.53897E5,3.2153184E4,2.5199745E5,1.1609152E5,2.4898172E5,1.3294294E5,4.4544206E5,2.8847878E5,6.190551E5,9.7053225E5,-1.1033539E5,-6.427077E4,-1.5426886E5,-1.2174899E5,3.8777562E4,-2.9360777E4,-7.5827445E4,-3.1262596E4,1.3400516E5,3.5930678E5,5.6501457E4,1.930979E4,2.3391305E5,5.560525E5,1.0489743E5,1.7546319E5,2.2878927E5,3.6446562E5,4.3407625E5,1.2420126E5,3.927258E5,6.682123E5,6.005064E5,2.38691E5,6.853639E5,4.1204944E5,6.689848E5,1.1030891E6,-6.629052E3,-4.7985327E3,-3.8610369E3,-2.634867E3,-7.803279E3,-2.5036875E3,-4.8590933E3,-6.2920796E3,3.73554E2,3.3211567E3,-2.2245325E3,1.6522887E3,-8.755727E2,-3.9540344E3,-1.6051447E3,1.6452908E4,7.9123745E3,2.6361787E3,7.0885415E3,1.979847E4,1.9496315E3,7.714203E3,4.8189258E2,2.9608896E3,1.2153866E4,-6.8657417E3,4.4135125E4,1.2685718E4,2.8922034E3,6.11497E3,1.0459785E4,5.655031E3,8.490325E3,1.3866683E4,2.6788166E4,1.2367019E4,8.458892E3,3.0719287E4,-1.9099365E3,6.9777056E3,8.1113438E3,2.0504037E4,4.2643906E4,2.559701E4,6.727652E4,1.5847424E4,8.538374E3,1.5942594E4,2.775103E4,4.067603E4,1.3340341E4,2.5091646E4,9.705375E3,4.1258527E4,6.69522E4,2.9586537E4],"categories":[],"categories_nodes":[],"categories_segments":[],"categories_sizes":[],"default_left":[0,0,0,0,0,0,0,0,0,0,0,0,0,0,0,0,0,0,0,0,0,0,0,0,0,0,0,0,0,0,0,0,0,0,0,0,0,0,0,0,0,0,0,0,0,0,0,0,0,0,0,0,0,0,0,0,0,0,0,0,0,0,0,0,0,0,0,0,0,0,0,0,0,0,0,0,0,0,0,0,0,0,0,0,0,0,0,0,0,0,0,0,0,0,0,0,0,0,0,0,0,0,0,0,0,0,0,0,0,0,0,0,0],"id":11,"left_children":[1,3,5,7,9,11,13,15,17,19,21,23,25,27,-1,29,31,33,35,37,39,41,43,45,47,49,51,53,55,57,59,61,63,65,67,69,71,73,75,77,79,81,83,85,87,89,91,93,95,97,99,101,103,105,107,109,111,-1,-1,-1,-1,-1,-1,-1,-1,-1,-1,-1,-1,-1,-1,-1,-1,-1,-1,-1,-1,-1,-1,-1,-1,-1,-1,-1,-1,-1,-1,-1,-1,-1,-1,-1,-1,-1,-1,-1,-1,-1,-1,-1,-1,-1,-1,-1,-1,-1,-1,-1,-1,-1,-1,-1,-1],"loss_changes":[2.3225463E14,6.2079516E13,4.7378556E13,1.1728696E13,7.3258846E12,9.305055E12,2.129319E13,3.2673167E12,3.7471493E12,1.6970537E12,1.737763E12,1.6812238E12,1.5928289E12,5.730384E12,0E0,1.2640091E12,6.273882E11,1.835687E12,2.1223252E12,4.4216877E11,7.944544E11,4.3079487E11,8.927786E11,1.6352249E12,3.5674312E11,3.507277E12,1.2858997E12,2.5177568E12,1.9401886E12,3.0459245E11,2.2209207E11,1.6366803E11,1.7126182E11,5.32643E11,1.04387045E12,5.577061E11,5.1953153E11,2.1037698E11,2.3617602E10,1.4971718E12,6.428707E11,3.6677773E11,2.698395E11,9.394832E11,4.3072723E11,1.7567758E12,2.0343192E12,8.711438E10,3.8680605E11,9.81551E11,1.2948634E12,2.1086253E12,3.865801E11,2.1042572E12,5.4420675E11,1.5457164E12,4.637231E12,0E0,0E0,0E0,0E0,0E0,0E0,0E0,0E0,0E0,0E0,0E0,0E0,0E0,0E0,0E0,0E0,0E0,0E0,0E0,0E0,0E0,0E0,0E0,0E0,0E0,0E0,0E0,0E0,0E0,0E0,0E0,0E0,0E0,0E0,0E0,0E0,0E0,0E0,0E0,0E0,0E0,0E0,0E0,0E0,0E0,0E0,0E0,0E0,0E0,0E0,0E0,0E0,0E0,0E0,0E0,0E0],"parents":[2147483647,0,0,1,1,2,2,3,3,4,4,5,5,6,6,7,7,8,8,9,9,10,10,11,11,12,12,13,13,15,15,16,16,17,17,18,18,19,19,20,20,21,21,22,22,23,23,24,24,25,25,26,26,27,27,28,28,29,29,30,30,31,31,32,32,33,33,34,34,35,35,36,36,37,37,38,38,39,39,40,40,41,41,42,42,43,43,44,44,45,45,46,46,47,47,48,48,49,49,50,50,51,51,52,52,53,53,54,54,55,55,56,56],"right_children":[2,4,6,8,10,12,14,16,18,20,22,24,26,28,-1,30,32,34,36,38,40,42,44,46,48,50,52,54,56,58,60,62,64,66,68,70,72,74,76,78,80,82,84,86,88,90,92,94,96,98,100,102,104,106,108,110,112,-1,-1,-1,-1,-1,-1,-1,-1,-1,-1,-1,-1,-1,-1,-1,-1,-1,-1,-1,-1,-1,-1,-1,-1,-1,-1,-1,-1,-1,-1,-1,-1,-1,-1,-1,-1,-1,-1,-1,-1,-1,-1,-1,-1,-1,-1,-1,-1,-1,-1,-1,-1,-1,-1,-1,-1],"split_conditions":[3.32E3,2.31E3,4.57E3,1.53E3,2.83E3,3.92E3,6.75E0,6.4E3,5.002E3,3.76E3,4.425E3,3.2112E4,3.5235E4,5.76E3,1.531431E5,1.13E3,1.12E3,2.25E0,2.01E3,3E0,4E0,3.26E3,3.25E0,1.6549E4,3E0,1.8E4,4E0,3.6384E4,1.4985E4,8.9E2,1.33E3,8.8426E4,3E0,1.79E3,2.75E0,3E0,3.75E0,3.5E0,2.456E3,2.75E0,1.3096E4,4E0,5E0,6.969E3,5E0,3E0,2E0,3.58E3,2.5E0,5.3E3,2.0875E4,1.5E0,3.5E0,3.75E0,3.5E0,3.75E0,5.0529E4,-6.629052E3,-4.7985327E3,-3.8610369E3,-2.634867E3,-7.803279E3,-2.5036875E3,-4.8590933E3,-6.2920796E3,3.73554E2,3.3211567E3,-2.2245325E3,1.6522887E3,-8.755727E2,-3.9540344E3,-1.6051447E3,1.6452908E4,7.9123745E3,2.6361787E3,7.0885415E3,1.979847E4,1.9496315E3,7.714203E3,4.8189258E2,2.9608896E3,1.2153866E4,-6.8657417E3,4.4135125E4,1.2685718E4,2.8922034E3,6.11497E3,1.0459785E4,5.655031E3,8.490325E3,1.3866683E4,2.6788166E4,1.2367019E4,8.458892E3,3.0719287E4,-1.9099365E3,6.9777056E3,8.1113438E3,2.0504037E4,4.2643906E4,2.559701E4,6.727652E4,1.5847424E4,8.538374E3,1.5942594E4,2.775103E4,4.067603E4,1.3340341E4,2.5091646E4,9.705375E3,4.1258527E4,6.69522E4,2.9586537E4],"split_indices":[2,2,2,2,2,2,1,3,3,3,3,3,3,2,0,2,2,1,2,4,0,2,1,3,0,3,0,3,3,2,2,3,0,2,1,0,1,1,2,1,3,1,0,3,0,1,4,2,1,3,3,4,1,1,1,1,3,0,0,0,0,0,0,0,0,0,0,0,0,0,0,0,0,0,0,0,0,0,0,0,0,0,0,0,0,0,0,0,0,0,0,0,0,0,0,0,0,0,0,0,0,0,0,0,0,0,0,0,0,0,0,0,0],"split_type":[0,0,0,0,0,0,0,0,0,0,0,0,0,0,0,0,0,0,0,0,0,0,0,0,0,0,0,0,0,0,0,0,0,0,0,0,0,0,0,0,0,0,0,0,0,0,0,0,0,0,0,0,0,0,0,0,0,0,0,0,0,0,0,0,0,0,0,0,0,0,0,0,0,0,0,0,0,0,0,0,0,0,0,0,0,0,0,0,0,0,0,0,0,0,0,0,0,0,0,0,0,0,0,0,0,0,0,0,0,0,0,0,0],"sum_hessian":[1.729E4,1.5716E4,1.574E3,1.1583E4,4.133E3,1.302E3,2.72E2,5.239E3,6.344E3,2.662E3,1.471E3,8.91E2,4.11E2,2.69E2,3E0,2.5E3,2.739E3,1.718E3,4.626E3,1.19E2,2.543E3,1.01E2,1.37E3,7.36E2,1.55E2,3.2E2,9.1E1,2.03E2,6.6E1,9.92E2,1.508E3,9.15E2,1.824E3,6.15E2,1.103E3,2.946E3,1.68E3,1.1E2,9E0,8.77E2,1.666E3,9.7E1,4E0,1.155E3,2.15E2,6.29E2,1.07E2,3E0,1.52E2,2.61E2,5.9E1,1.1E1,8E1,1.52E2,5.1E1,2.2E1,4.4E1,3.86E2,6.06E2,7.09E2,7.99E2,8.99E2,1.6E1,2.64E2,1.56E3,2.89E2,3.26E2,8.88E2,2.15E2,1.56E2,2.79E3,1.677E3,3E0,8.4E1,2.6E1,2E0,7E0,7.45E2,1.32E2,1.342E3,3.24E2,9.5E1,2E0,1E0,3E0,3.13E2,8.42E2,1.38E2,7.7E1,2.86E2,3.43E2,4.2E1,6.5E1,2E0,1E0,1.3E1,1.39E2,1.9E1,2.42E2,2.5E1,3.4E1,2E0,9E0,4.5E1,3.5E1,7.8E1,7.4E1,2.1E1,3E1,6E0,1.6E1,2.9E1,1.5E1],"tree_param":{"num_deleted":"0","num_feature":"5","num_nodes":"113","size_leaf_vector":"1"}},{"base_weights":[4.802116E2,-3.684502E4,3.2616253E5,-7.3442625E4,5.246618E4,2.5639E5,7.098668E5,-1.07224664E5,-4.920024E4,2.5266348E4,1.0824739E5,2.0535917E5,3.9139575E5,6.740801E5,1.4740023E5,-7.5762E4,-1.25065586E5,-1.70942E4,-6.816159E4,9.631121E4,1.8598383E4,2.0360312E5,9.84322E4,1.6583253E5,2.478018E5,4.3464866E5,2.994276E5,5.886262E5,9.242072E5,-1.0170474E5,-6.2954902E4,-1.4200534E5,-1.1457727E5,1.4074801E4,-4.002685E4,-8.368674E4,-4.8119156E4,8.4462016E4,2.6071666E5,-2.163859E3,3.5382832E4,1.4822186E5,2.4874905E5,9.455102E4,2.495204E5,5.445994E5,1.6219355E5,4.405015E5,2.3274528E5,3.954832E5,5.89789E5,2.7533016E5,5.7311275E5,6.5154294E5,3.921861E5,6.377514E5,1.05008E6,-8.011074E3,-4.833327E3,-2.068988E3,-3.992281E3,-7.871118E3,-6.6438413E3,-4.0091277E3,-6.0954365E3,-7.898488E2,3.1202927E3,3.795287E3,-2.5046108E3,-4.322724E3,-2.4720112E3,-1.4913083E3,-3.328302E3,8.26476E3,3.1388345E3,1.5683386E3,1.4460276E4,1.2001473E3,-1.0287284E3,8.883546E3,1.6357823E3,5.8399336E3,1.6363742E4,1.3324476E4,2.0438896E3,3.8815906E3,6.5949233E3,8.917699E3,2.0974021E4,7.2223633E3,3.8160918E4,8.915351E3,4.8370474E3,2.2744893E4,-1.9441688E3,1.6409984E4,1.0522378E4,2.9656844E4,1.8160615E4,3.2310395E4,1.552481E4,1.4401073E4,-4.470199E3,3.8808133E4,-7.9695596E3,2.6098945E4,3.8797184E4,2.0623627E4,-3.8325063E3,3.887132E4,5.6217334E3,6.3716176E4,2.8199666E4],"categories":[],"categories_nodes":[],"categories_segments":[],"categories_sizes":[],"default_left":[0,0,0,0,0,0,0,0,0,0,0,0,0,0,0,0,0,0,0,0,0,0,0,0,0,0,0,0,0,0,0,0,0,0,0,0,0,0,0,0,0,0,0,0,0,0,0,0,0,0,0,0,0,0,0,0,0,0,0,0,0,0,0,0,0,0,0,0,0,0,0,0,0,0,0,0,0,0,0,0,0,0,0,0,0,0,0,0,0,0,0,0,0,0,0,0,0,0,0,0,0,0,0,0,0,0,0,0,0,0,0,0,0],"id":12,"left_children":[1,3,5,7,9,11,13,15,17,19,21,23,25,27,-1,29,31,33,35,37,39,41,43,45,47,49,51,53,55,57,59,61,63,65,67,69,71,73,75,77,79,81,83,85,87,89,91,93,95,97,99,101,103,105,107,109,111,-1,-1,-1,-1,-1,-1,-1,-1,-1,-1,-1,-1,-1,-1,-1,-1,-1,-1,-1,-1,-1,-1,-1,-1,-1,-1,-1,-1,-1,-1,-1,-1,-1,-1,-1,-1,-1,-1,-1,-1,-1,-1,-1,-1,-1,-1,-1,-1,-1,-1,-1,-1,-1,-1,-1,-1],"loss_changes":[2.102043E14,5.0712545E13,4.7418654E13,9.007348E12,6.8400154E12,1.0295146E13,1.9878912E13,2.570928E12,3.9004668E12,1.4350153E12,1.3632715E12,1.7958961E12,1.5087457E12,5.2270675E12,0E0,5.4712808E11,5.0465446E11,1.7024732E12,1.2496446E12,4.844783E11,9.667678E11,3.0566253E11,7.63356E11,6.973156E11,1.4236055E12,1.45591E12,7.325457E11,2.2657882E12,1.7461265E12,1.4636758E11,4.04117E11,1.3628342E11,4.48153E11,1.4591576E12,1.6047943E12,2.1079314E11,5.922617E11,4.173293E11,1.0200508E11,5.983449E11,5.7635386E11,3.2186525E11,2.6199825E11,8.175359E11,3.243336E11,3.2715938E11,5.7969266E11,2.7303923E11,9.738545E11,1.2197204E12,6.5025343E11,6.089993E11,1.6110615E12,2.0610013E12,5.2618907E11,1.6001836E12,4.1863684E12,0E0,0E0,0E0,0E0,0E0,0E0,0E0,0E0,0E0,0E0,0E0,0E0,0E0,0E0,0E0,0E0,0E0,0E0,0E0,0E0,0E0,0E0,0E0,0E0,0E0,0E0,0E0,0E0,0E0,0E0,0E0,0E0,0E0,0E0,0E0,0E0,0E0,0E0,0E0,0E0,0E0,0E0,0E0,0E0,0E0,0E0,0E0,0E0,0E0,0E0,0E0,0E0,0E0,0E0,0E0,0E0],"parents":[2147483647,0,0,1,1,2,2,3,3,4,4,5,5,6,6,7,7,8,8,9,9,10,10,11,11,12,12,13,13,15,15,16,16,17,17,18,18,19,19,20,20,21,21,22,22,23,23,24,24,25,25,26,26,27,27,28,28,29,29,30,30,31,31,32,32,33,33,34,34,35,35,36,36,37,37,38,38,39,39,40,40,41,41,42,42,43,43,44,44,45,45,46,46,47,47,48,48,49,49,50,50,51,51,52,52,53,53,54,54,55,55,56,56],"right_children":[2,4,6,8,10,12,14,16,18,20,22,24,26,28,-1,30,32,34,36,38,40,42,44,46,48,50,52,54,56,58,60,62,64,66,68,70,72,74,76,78,80,82,84,86,88,90,92,94,96,98,100,102,104,106,108,110,112,-1,-1,-1,-1,-1,-1,-1,-1,-1,-1,-1,-1,-1,-1,-1,-1,-1,-1,-1,-1,-1,-1,-1,-1,-1,-1,-1,-1,-1,-1,-1,-1,-1,-1,-1,-1,-1,-1,-1,-1,-1,-1,-1,-1,-1,-1,-1,-1,-1,-1,-1,-1,-1,-1,-1,-1],"split_conditions":[3.23E3,2.22E3,4.57E3,1.46E3,2.78E3,3.92E3,6.75E0,5.12E3,6.05E3,4.064E3,4.635E3,3E0,5E0,5.76E3,1.4740023E5,1.06E3,1.09E3,2E0,1.88E3,3E0,2.44E3,3E0,2.5E0,3E0,4.132E3,3.75E0,2.5E0,3.6384E4,1.4985E4,7E2,2E0,8.9E2,3E0,1.5E0,2E0,2.3994E4,4E0,2.5E0,2.28E3,2.5E0,3E0,3E0,4E0,1.3096E4,3.09E3,3.5E3,3.2112E4,4.75E0,2E0,1.5E0,3.5235E4,1.05415E5,7.519E3,1.3468E4,6E0,5E0,5.0529E4,-8.011074E3,-4.833327E3,-2.068988E3,-3.992281E3,-7.871118E3,-6.6438413E3,-4.0091277E3,-6.0954365E3,-7.898488E2,3.1202927E3,3.795287E3,-2.5046108E3,-4.322724E3,-2.4720112E3,-1.4913083E3,-3.328302E3,8.26476E3,3.1388345E3,1.5683386E3,1.4460276E4,1.2001473E3,-1.0287284E3,8.883546E3,1.6357823E3,5.8399336E3,1.6363742E4,1.3324476E4,2.0438896E3,3.8815906E3,6.5949233E3,8.917699E3,2.0974021E4,7.2223633E3,3.8160918E4,8.915351E3,4.8370474E3,2.2744893E4,-1.9441688E3,1.6409984E4,1.0522378E4,2.9656844E4,1.8160615E4,3.2310395E4,1.552481E4,1.4401073E4,-4.470199E3,3.8808133E4,-7.9695596E3,2.6098945E4,3.8797184E4,2.0623627E4,-3.8325063E3,3.887132E4,5.6217334E3,6.3716176E4,2.8199666E4],"split_indices":[2,2,2,2,2,2,1,3,3,3,3,1,0,2,0,2,2,4,2,4,2,1,4,0,3,1,4,3,3,2,4,2,0,4,1,3,0,1,2,1,0,4,1,3,2,2,3,1,4,4,3,3,3,3,0,1,3,0,0,0,0,0,0,0,0,0,0,0,0,0,0,0,0,0,0,0,0,0,0,0,0,0,0,0,0,0,0,0,0,0,0,0,0,0,0,0,0,0,0,0,0,0,0,0,0,0,0,0,0,0,0,0,0],"split_type":[0,0,0,0,0,0,0,0,0,0,0,0,0,0,0,0,0,0,0,0,0,0,0,0,0,0,0,0,0,0,0,0,0,0,0,0,0,0,0,0,0,0,0,0,0,0,0,0,0,0,0,0,0,0,0,0,0,0,0,0,0,0,0,0,0,0,0,0,0,0,0,0,0,0,0,0,0,0,0,0,0,0,0,0,0,0,0,0,0,0,0,0,0,0,0,0,0,0,0,0,0,0,0,0,0,0,0,0,0,0,0,0,0],"sum_hessian":[1.729E4,1.5513E4,1.777E3,1.1004E4,4.509E3,1.505E3,2.72E2,4.596E3,6.408E3,3.032E3,1.477E3,1.094E3,4.11E2,2.69E2,3E0,1.665E3,2.931E3,2.38E3,4.028E3,2.59E2,2.773E3,1.36E2,1.341E3,5.69E2,5.25E2,2.77E2,1.34E2,2.03E2,6.6E1,5.48E2,1.117E3,1.116E3,1.815E3,1.009E3,1.371E3,2.268E3,1.76E3,2.43E2,1.6E1,1.24E3,1.533E3,6.3E1,7.3E1,1.309E3,3.2E1,4E0,5.65E2,3.6E1,4.89E2,2.24E2,5.3E1,1.25E2,9E0,1.52E2,5.1E1,2.2E1,4.4E1,4.1E1,5.07E2,4.92E2,6.25E2,4.09E2,7.07E2,3.21E2,1.494E3,6.24E2,3.85E2,1.09E2,1.262E3,2.097E3,1.71E2,8.85E2,8.75E2,5E1,1.93E2,2E0,1.4E1,5.12E2,7.28E2,2.7E1,1.506E3,5.5E1,8E0,6.7E1,6E0,9.03E2,4.06E2,2.4E1,8E0,2E0,2E0,4.52E2,1.13E2,3.5E1,1E0,9E1,3.99E2,2.9E1,1.95E2,4.3E1,1E1,1.21E2,4E0,7E0,2E0,7.7E1,7.5E1,4.9E1,2E0,1.7E1,5E0,2.9E1,1.5E1],"tree_param":{"num_deleted":"0","num_feature":"5","num_nodes":"113","size_leaf_vector":"1"}},{"base_weights":[4.951427E2,-3.0939172E4,3.5104375E5,-6.662667E4,6.5522547E4,2.8504753E5,7.3302625E5,-9.438968E4,-3.629992E4,3.406227E4,1.1707008E5,2.1856358E5,3.878061E5,6.886052E5,1.4187273E5,-7.135921E4,-1.1503473E5,3.878595E3,-5.051214E4,1.4119786E5,2.8995314E4,9.960377E4,1.6706361E5,2.3873948E5,1.2637719E5,4.0962688E5,1.9793425E5,5.1149625E5,8.355768E5,-9.944548E4,-5.6398793E4,-1.26499984E5,-9.097065E4,5.9270004E4,-1.2911678E4,-6.6192125E4,-2.7992842E4,1.22825086E5,3.310159E5,5.2126836E4,1.6794672E4,9.573413E4,2.589862E5,1.999022E5,1.08064914E5,2.2489698E5,3.6811912E5,4.0671866E5,1.1692459E5,3.2419906E5,4.6963475E5,2.2447589E5,2.7213484E4,6.6813994E5,3.0288566E5,9.353944E5,4.7327338E5,-5.989558E3,-4.3155005E3,-1.9814293E3,-3.6359692E3,-7.4036704E3,-5.9758745E3,-4.678904E3,-8.1161554E2,1.9815902E3,8.0727393E3,-1.1717347E3,3.1389377E3,-2.3954768E2,-3.46749E3,-1.4401229E3,1.5931991E4,7.288035E3,2.3035637E3,6.370248E3,1.829965E4,1.7755277E3,7.2467993E3,3.831076E2,2.724069E3,2.6428586E3,5.6168916E3,8.500731E3,2.5080654E4,8.587866E3,2.2238002E4,6.198499E3,-7.9211675E3,8.577634E3,1.3163769E4,2.3524854E4,6.9300117E3,7.783056E3,2.8997281E4,-3.2261667E3,6.5362925E3,1.431887E4,3.1381232E4,3.215005E4,2.1401816E4,2.4211318E3,1.2290261E4,9.642266E3,-3.0069006E3,4.2424047E4,2.1250256E4,4.1428525E3,2.368113E4,4.2162246E4,7.7570305E4,2.5400355E4,7.7618125E3],"categories":[],"categories_nodes":[],"categories_segments":[],"categories_sizes":[],"default_left":[0,0,0,0,0,0,0,0,0,0,0,0,0,0,0,0,0,0,0,0,0,0,0,0,0,0,0,0,0,0,0,0,0,0,0,0,0,0,0,0,0,0,0,0,0,0,0,0,0,0,0,0,0,0,0,0,0,0,0,0,0,0,0,0,0,0,0,0,0,0,0,0,0,0,0,0,0,0,0,0,0,0,0,0,0,0,0,0,0,0,0,0,0,0,0,0,0,0,0,0,0,0,0,0,0,0,0,0,0,0,0,0,0],"id":13,"left_children":[1,3,5,7,9,11,13,15,17,19,21,23,25,27,-1,29,31,33,35,37,39,41,43,45,47,49,51,53,55,57,59,61,63,65,67,69,71,73,75,77,79,81,83,85,87,89,91,93,95,97,99,101,103,105,107,109,111,-1,-1,-1,-1,-1,-1,-1,-1,-1,-1,-1,-1,-1,-1,-1,-1,-1,-1,-1,-1,-1,-1,-1,-1,-1,-1,-1,-1,-1,-1,-1,-1,-1,-1,-1,-1,-1,-1,-1,-1,-1,-1,-1,-1,-1,-1,-1,-1,-1,-1,-1,-1,-1,-1,-1,-1],"loss_changes":[1.905448E14,5.463304E13,3.5664033E13,9.749861E12,6.946619E12,8.2158614E12,1.7583638E13,2.8669284E12,3.1625377E12,1.4415186E12,1.4014386E12,1.346187E12,1.8910607E12,4.934783E12,0E0,1.1965322E12,8.677889E11,1.3474587E12,1.4426885E12,3.77841E11,7.170907E11,7.190117E11,7.9018276E11,1.00252044E12,3.1018844E11,2.0315699E12,2.2498299E11,2.9346706E12,3.5715337E12,2.5504095E11,5.0866264E11,3.070734E11,1.9959225E11,6.6986744E11,8.871699E11,4.6712383E11,4.8093305E11,1.8868863E11,2.4587928E10,1.3488549E12,5.733216E11,8.3341135E11,5.1915155E11,1.770531E12,6.638936E11,1.0808323E12,1.2741562E12,8.368469E10,3.389906E11,1.8744743E12,1.5132923E12,1.5332173E11,1.2734283E11,2.0071422E12,1.576139E12,3.573589E12,2.0835048E11,0E0,0E0,0E0,0E0,0E0,0E0,0E0,0E0,0E0,0E0,0E0,0E0,0E0,0E0,0E0,0E0,0E0,0E0,0E0,0E0,0E0,0E0,0E0,0E0,0E0,0E0,0E0,0E0,0E0,0E0,0E0,0E0,0E0,0E0,0E0,0E0,0E0,0E0,0E0,0E0,0E0,0E0,0E0,0E0,0E0,0E0,0E0,0E0,0E0,0E0,0E0,0E0,0E0,0E0,0E0,0E0],"parents":[2147483647,0,0,1,1,2,2,3,3,4,4,5,5,6,6,7,7,8,8,9,9,10,10,11,11,12,12,13,13,15,15,16,16,17,17,18,18,19,19,20,20,21,21,22,22,23,23,24,24,25,25,26,26,27,27,28,28,29,29,30,30,31,31,32,32,33,33,34,34,35,35,36,36,37,37,38,38,39,39,40,40,41,41,42,42,43,43,44,44,45,45,46,46,47,47,48,48,49,49,50,50,51,51,52,52,53,53,54,54,55,55,56,56],"right_children":[2,4,6,8,10,12,14,16,18,20,22,24,26,28,-1,30,32,34,36,38,40,42,44,46,48,50,52,54,56,58,60,62,64,66,68,70,72,74,76,78,80,82,84,86,88,90,92,94,96,98,100,102,104,106,108,110,112,-1,-1,-1,-1,-1,-1,-1,-1,-1,-1,-1,-1,-1,-1,-1,-1,-1,-1,-1,-1,-1,-1,-1,-1,-1,-1,-1,-1,-1,-1,-1,-1,-1,-1,-1,-1,-1,-1,-1,-1,-1,-1,-1,-1,-1,-1,-1,-1,-1,-1,-1,-1,-1,-1,-1,-1],"split_conditions":[3.4E3,2.31E3,4.75E3,1.62E3,2.83E3,3.92E3,6.75E0,6.4E3,5.002E3,3.76E3,3E0,3.2112E4,6.0984E4,4E0,1.4187273E5,1.13E3,1.41E3,2E0,2.01E3,3E0,4E0,2.5E0,5E0,1.937E4,3E0,1.0723E4,5E0,5E0,4.705E4,8.9E2,2E0,1E3,5.0529E4,2E0,2.5E0,3E0,3.75E0,3.5E0,2.456E3,2.75E0,1.3096E4,6.969E3,3.09E3,3.75E0,4.5E0,3E0,5E0,3.58E3,2.5E0,2.5E0,2E0,4E3,1.05415E5,3.2112E4,5.16E3,3.4222E4,6E0,-5.989558E3,-4.3155005E3,-1.9814293E3,-3.6359692E3,-7.4036704E3,-5.9758745E3,-4.678904E3,-8.1161554E2,1.9815902E3,8.0727393E3,-1.1717347E3,3.1389377E3,-2.3954768E2,-3.46749E3,-1.4401229E3,1.5931991E4,7.288035E3,2.3035637E3,6.370248E3,1.829965E4,1.7755277E3,7.2467993E3,3.831076E2,2.724069E3,2.6428586E3,5.6168916E3,8.500731E3,2.5080654E4,8.587866E3,2.2238002E4,6.198499E3,-7.9211675E3,8.577634E3,1.3163769E4,2.3524854E4,6.9300117E3,7.783056E3,2.8997281E4,-3.2261667E3,6.5362925E3,1.431887E4,3.1381232E4,3.215005E4,2.1401816E4,2.4211318E3,1.2290261E4,9.642266E3,-3.0069006E3,4.2424047E4,2.1250256E4,4.1428525E3,2.368113E4,4.2162246E4,7.7570305E4,2.5400355E4,7.7618125E3],"split_indices":[2,2,2,2,2,2,1,3,3,3,1,3,3,1,0,2,2,1,2,4,0,4,0,3,0,3,0,0,3,2,4,2,3,4,4,0,1,1,2,1,3,3,2,1,1,1,0,2,1,4,4,2,3,3,2,3,0,0,0,0,0,0,0,0,0,0,0,0,0,0,0,0,0,0,0,0,0,0,0,0,0,0,0,0,0,0,0,0,0,0,0,0,0,0,0,0,0,0,0,0,0,0,0,0,0,0,0,0,0,0,0,0,0],"split_type":[0,0,0,0,0,0,0,0,0,0,0,0,0,0,0,0,0,0,0,0,0,0,0,0,0,0,0,0,0,0,0,0,0,0,0,0,0,0,0,0,0,0,0,0,0,0,0,0,0,0,0,0,0,0,0,0,0,0,0,0,0,0,0,0,0,0,0,0,0,0,0,0,0,0,0,0,0,0,0,0,0,0,0,0,0,0,0,0,0,0,0,0,0,0,0,0,0,0,0,0,0,0,0,0,0,0,0,0,0,0,0,0,0],"sum_hessian":[1.729E4,1.5868E4,1.422E3,1.1583E4,4.285E3,1.214E3,2.08E2,6.046E3,5.537E3,2.662E3,1.623E3,7.39E2,4.75E2,2.05E2,3E0,2.86E3,3.186E3,1.447E3,4.09E3,1.19E2,2.543E3,1.205E3,4.18E2,6.05E2,1.34E2,4.25E2,5E1,9.5E1,1.1E2,9.92E2,1.868E3,2.155E3,1.031E3,3.36E2,1.111E3,2.41E3,1.68E3,1.1E2,9E0,8.77E2,1.666E3,1.178E3,2.7E1,2.67E2,1.51E2,5.49E2,5.6E1,3E0,1.31E2,1.78E2,2.47E2,4.3E1,7E0,5.3E1,4.2E1,8.5E1,2.5E1,3.86E2,6.06E2,9.23E2,9.45E2,5.22E2,1.633E3,9.96E2,3.5E1,2.83E2,5.3E1,9.76E2,1.35E2,1.18E2,2.292E3,1.677E3,3E0,8.4E1,2.6E1,2E0,7E0,7.45E2,1.32E2,1.342E3,3.24E2,3.3E2,8.48E2,2.1E1,6E0,2.41E2,2.6E1,1.43E2,8E0,2.32E2,3.17E2,3.8E1,1.8E1,2E0,1E0,9E0,1.22E2,1.6E2,1.8E1,4.5E1,2.02E2,5E0,3.8E1,2E0,5E0,2.9E1,2.4E1,1.9E1,2.3E1,7.6E1,9E0,2.2E1,3E0],"tree_param":{"num_deleted":"0","num_feature":"5","num_nodes":"113","size_leaf_vector":"1"}},{"base_weights":[5.11133E2,-2.938557E4,3.339126E5,-6.3296367E4,6.2273797E4,2.599249E5,6.4463025E5,-8.9675945E4,-3.44808E4,3.2376574E4,1.11260266E5,2.0776012E5,3.5298803E5,5.948994E5,2.037303E6,-6.221544E4,-1.0538617E5,1.9599282E3,-4.869537E4,1.3442347E5,2.7550314E4,2.2006394E5,1.03363914E5,2.2688866E5,1.2035528E5,3.9376444E5,2.6640412E5,4.7791394E5,7.163767E5,1.1449709E6,1.4332378E5,-8.605206E4,-4.7992633E4,-1.2300469E5,-9.248931E4,5.1455766E4,-1.3592785E4,-6.408742E4,-2.679336E4,1.1677023E5,3.169321E5,1.5175941E4,4.9266113E4,-3.0762234E4,2.27453E5,9.762422E4,2.5695314E5,2.1369169E5,3.5024744E5,3.955778E5,1.1110342E5,3.7345366E5,6.8362706E5,2.4406048E5,5.2129372E5,-1.18130836E5,4.875479E5,7.8586E5,4.4015547E5,6.5255715E4,8.606362E3,-6.1864917E3,-4.0180918E3,-1.0758262E3,-3.2577156E3,-5.339355E3,-6.5856987E3,-2.846661E3,-4.8686626E3,1.6534774E3,7.624183E3,-1.1538613E3,2.9831448E3,-5.647577E2,-3.3343813E3,-2.1681008E3,-4.215938E2,6.9279194E3,2.1926514E3,1.9138738E4,8.726726E3,5.983288E2,5.897947E3,4.367739E3,1.6441539E3,-6.283328E3,2.1380698E3,2.156849E4,1.0866281E4,5.054185E3,-1.2413048E3,5.0907515E3,2.4794664E4,8.1505933E3,1.2507651E4,2.237877E4,6.6017485E3,7.523621E3,2.827235E4,-3.0809885E3,6.2121343E3,1.985485E4,9.223148E3,3.6225168E4,7.401938E2,1.1483745E4,3.1270107E4,-9.484853E3,3.613768E4,6.0197656E3,-1.4879578E4,2.789741E4,1.8338553E4,3.5274508E4,6.615728E4,2.3453389E4,7.470746E3],"categories":[],"categories_nodes":[],"categories_segments":[],"categories_sizes":[],"default_left":[0,0,0,0,0,0,0,0,0,0,0,0,0,0,0,0,0,0,0,0,0,0,0,0,0,0,0,0,0,0,0,0,0,0,0,0,0,0,0,0,0,0,0,0,0,0,0,0,0,0,0,0,0,0,0,0,0,0,0,0,0,0,0,0,0,0,0,0,0,0,0,0,0,0,0,0,0,0,0,0,0,0,0,0,0,0,0,0,0,0,0,0,0,0,0,0,0,0,0,0,0,0,0,0,0,0,0,0,0,0,0,0,0,0,0,0,0],"id":14,"left_children":[1,3,5,7,9,11,13,15,17,19,21,23,25,27,29,31,33,35,37,39,41,43,45,47,49,51,53,55,57,59,-1,61,63,65,67,69,71,73,75,77,79,81,83,85,87,89,91,93,95,97,99,101,103,105,107,109,111,113,115,-1,-1,-1,-1,-1,-1,-1,-1,-1,-1,-1,-1,-1,-1,-1,-1,-1,-1,-1,-1,-1,-1,-1,-1,-1,-1,-1,-1,-1,-1,-1,-1,-1,-1,-1,-1,-1,-1,-1,-1,-1,-1,-1,-1,-1,-1,-1,-1,-1,-1,-1,-1,-1,-1,-1,-1,-1,-1],"loss_changes":[1.7235967E14,4.9328635E13,3.2546205E13,8.802397E12,6.273499E12,5.5143186E12,1.7695676E13,2.6021881E12,2.868721E12,1.3078367E12,1.3725168E12,1.2099183E12,1.3497019E12,3.423567E12,3.3770439E12,7.427394E11,8.622944E11,1.19773E12,1.3413562E12,3.4961595E11,6.828745E11,2.0901423E11,1.3113544E12,9.117012E11,2.9980308E11,1.3813772E12,6.416205E11,8.500302E11,2.1107751E12,7.1012083E11,0E0,1.6628947E11,6.2654356E11,2.1503148E11,3.8066245E11,6.8595535E11,8.240073E11,3.2032214E11,5.0038886E11,1.7027301E11,2.695096E10,5.3363484E11,5.730866E11,3.3284522E10,1.2515803E11,6.2225646E11,1.951222E12,9.755406E11,1.1514801E12,8.145928E10,3.0722372E11,1.0974648E12,4.5403708E11,5.4757478E11,1.569465E12,1.6424686E11,9.517316E11,3.4278704E12,1.6528127E11,0E0,0E0,0E0,0E0,0E0,0E0,0E0,0E0,0E0,0E0,0E0,0E0,0E0,0E0,0E0,0E0,0E0,0E0,0E0,0E0,0E0,0E0,0E0,0E0,0E0,0E0,0E0,0E0,0E0,0E0,0E0,0E0,0E0,0E0,0E0,0E0,0E0,0E0,0E0,0E0,0E0,0E0,0E0,0E0,0E0,0E0,0E0,0E0,0E0,0E0,0E0,0E0,0E0,0E0,0E0,0E0,0E0,0E0],"parents":[2147483647,0,0,1,1,2,2,3,3,4,4,5,5,6,6,7,7,8,8,9,9,10,10,11,11,12,12,13,13,14,14,15,15,16,16,17,17,18,18,19,19,20,20,21,21,22,22,23,23,24,24,25,25,26,26,27,27,28,28,29,29,31,31,32,32,33,33,34,34,35,35,36,36,37,37,38,38,39,39,40,40,41,41,42,42,43,43,44,44,45,45,46,46,47,47,48,48,49,49,50,50,51,51,52,52,53,53,54,54,55,55,56,56,57,57,58,58],"right_children":[2,4,6,8,10,12,14,16,18,20,22,24,26,28,30,32,34,36,38,40,42,44,46,48,50,52,54,56,58,60,-1,62,64,66,68,70,72,74,76,78,80,82,84,86,88,90,92,94,96,98,100,102,104,106,108,110,112,114,116,-1,-1,-1,-1,-1,-1,-1,-1,-1,-1,-1,-1,-1,-1,-1,-1,-1,-1,-1,-1,-1,-1,-1,-1,-1,-1,-1,-1,-1,-1,-1,-1,-1,-1,-1,-1,-1,-1,-1,-1,-1,-1,-1,-1,-1,-1,-1,-1,-1,-1,-1,-1,-1,-1,-1,-1,-1,-1],"split_conditions":[3.4E3,2.31E3,4.57E3,1.62E3,2.83E3,3.92E3,6E0,5.16E3,5.16E3,3.76E3,4.425E3,3.2112E4,5E0,4E0,2.178E4,1.18E3,1.21E3,2E0,2.01E3,3E0,2.61E3,2.25E0,3.75E0,1.937E4,3E0,4.25E0,2.5E0,2.25E0,4.705E4,6E0,1.4332378E5,7.6E2,2E0,7.216E3,3E0,2E0,2.5E0,3E0,9.264E3,3.5E0,4E0,3.25E0,4E0,2.84E3,2.5E0,6E0,8.06E3,3E0,5E0,3.58E3,2.5E0,7.3616E4,2.5E0,4.75E0,4.425E3,1E0,5E0,3.4222E4,6E0,6.5255715E4,8.606362E3,-6.1864917E3,-4.0180918E3,-1.0758262E3,-3.2577156E3,-5.339355E3,-6.5856987E3,-2.846661E3,-4.8686626E3,1.6534774E3,7.624183E3,-1.1538613E3,2.9831448E3,-5.647577E2,-3.3343813E3,-2.1681008E3,-4.215938E2,6.9279194E3,2.1926514E3,1.9138738E4,8.726726E3,5.983288E2,5.897947E3,4.367739E3,1.6441539E3,-6.283328E3,2.1380698E3,2.156849E4,1.0866281E4,5.054185E3,-1.2413048E3,5.0907515E3,2.4794664E4,8.1505933E3,1.2507651E4,2.237877E4,6.6017485E3,7.523621E3,2.827235E4,-3.0809885E3,6.2121343E3,1.985485E4,9.223148E3,3.6225168E4,7.401938E2,1.1483745E4,3.1270107E4,-9.484853E3,3.613768E4,6.0197656E3,-1.4879578E4,2.789741E4,1.8338553E4,3.5274508E4,6.615728E4,2.3453389E4,7.470746E3],"split_indices":[2,2,2,2,2,2,1,3,3,3,3,3,0,1,3,2,2,1,2,4,2,1,1,3,0,1,4,1,3,0,0,2,4,3,0,4,4,0,3,1,0,1,0,2,1,0,3,1,0,2,1,3,4,1,3,0,0,3,0,0,0,0,0,0,0,0,0,0,0,0,0,0,0,0,0,0,0,0,0,0,0,0,0,0,0,0,0,0,0,0,0,0,0,0,0,0,0,0,0,0,0,0,0,0,0,0,0,0,0,0,0,0,0,0,0,0,0],"split_type":[0,0,0,0,0,0,0,0,0,0,0,0,0,0,0,0,0,0,0,0,0,0,0,0,0,0,0,0,0,0,0,0,0,0,0,0,0,0,0,0,0,0,0,0,0,0,0,0,0,0,0,0,0,0,0,0,0,0,0,0,0,0,0,0,0,0,0,0,0,0,0,0,0,0,0,0,0,0,0,0,0,0,0,0,0,0,0,0,0,0,0,0,0,0,0,0,0,0,0,0,0,0,0,0,0,0,0,0,0,0,0,0,0,0,0,0,0],"sum_hessian":[1.729E4,1.5868E4,1.422E3,1.1583E4,4.285E3,1.15E3,2.72E2,6.046E3,5.537E3,2.662E3,1.623E3,7.39E2,4.11E2,2.64E2,8E0,2.202E3,3.844E3,1.554E3,3.983E3,1.19E2,2.543E3,1.08E2,1.515E3,6.05E2,1.34E2,2.77E2,1.34E2,1.37E2,1.27E2,5E0,3E0,8.21E2,1.381E3,1.621E3,2.223E3,3.71E2,1.183E3,2.338E3,1.645E3,1.1E2,9E0,1.621E3,9.22E2,3E0,1.05E2,1.462E3,5.3E1,5.49E2,5.6E1,3E0,1.31E2,2.61E2,1.6E1,1.25E2,9E0,2E0,1.35E2,1E2,2.7E1,4E0,1E0,1.05E2,7.16E2,5.44E2,8.37E2,5.71E2,1.05E3,2.7E2,1.953E3,3.15E2,5.6E1,1.048E3,1.35E2,1.1E2,2.228E3,8.64E2,7.81E2,8.4E1,2.6E1,5E0,4E0,1.573E3,4.8E1,2.76E2,6.46E2,1E0,2E0,3E0,1.02E2,1.422E3,4E1,3.3E1,2E1,2.32E2,3.17E2,3.8E1,1.8E1,2E0,1E0,9E0,1.22E2,2.31E2,3E1,1.5E1,1E0,1.22E2,3E0,2E0,7E0,1E0,1E0,8.3E1,5.2E1,8.9E1,1.1E1,2.4E1,3E0],"tree_param":{"num_deleted":"0","num_feature":"5","num_nodes":"117","size_leaf_vector":"1"}},{"base_weights":[5.2564734E2,-3.6224875E4,2.463405E5,-7.201334E4,2.0756805E4,1.7473984E5,5.1338225E5,-9.465224E4,-5.3488184E4,-2.4385134E3,6.281988E4,1.4547792E5,2.69388E5,4.8280584E5,1.8869059E6,-7.31755E4,-1.1455103E5,-3.0071822E4,-7.152731E4,3.2133102E4,-1.5988548E4,1.44178E5,5.5202375E4,3.0020475E5,1.3859244E5,-8.787595E4,2.748042E5,4.0791325E5,6.732365E5,5.5950914E4,1.3794914E5,-1.037022E5,-6.3160375E4,-1.4139777E5,-1.0960437E5,1.7883417E3,-4.6659594E4,-8.353315E4,-5.8404215E4,8.467624E4,7.1026084E3,-3.9851414E4,5.5246284E3,4.0251372E5,1.3582998E5,2.9165611E4,7.192301E4,3.0737794E5,-2.5373484E3,1.3053574E5,2.6166586E5,6.873358E4,-1.1125825E4,2.9961272E5,1.9225834E5,2.986706E5,4.7173272E5,7.5138694E5,4.3047694E5,-4.9199126E3,-7.4363643E3,-2.6212166E3,-3.981402E3,-7.1347417E3,-2.3570862E3,-5.5563076E3,-1.7558138E3,-1.3426798E3,1.8209951E3,-4.2100742E2,-3.1025205E3,-5.2246274E3,-3.8653567E3,-3.403552E3,-1.5683931E3,3.0621062E3,7.267617E3,-8.949096E2,3.5341672E3,-2.0776628E3,1.63506875E4,-9.0915344E2,1.31957E3,2.3854846E4,2.6045251E3,6.185582E3,1.3187883E4,3.0236287E3,6.290283E2,4.291002E3,1.143254E3,1.5844411E4,1.6866584E3,5.4404106E3,8.646911E3,1.855917E4,-3.9985056E3,4.818373E3,-3.5420157E2,1.7058691E4,1.034223E4,6.838911E3,1.2477502E4,1.8224049E4,5.763476E3,2.7547379E4,1.7955557E4,3.2043531E4,5.3954855E4,1.3569039E4,2.524606E4],"categories":[],"categories_nodes":[],"categories_segments":[],"categories_sizes":[],"default_left":[0,0,0,0,0,0,0,0,0,0,0,0,0,0,0,0,0,0,0,0,0,0,0,0,0,0,0,0,0,0,0,0,0,0,0,0,0,0,0,0,0,0,0,0,0,0,0,0,0,0,0,0,0,0,0,0,0,0,0,0,0,0,0,0,0,0,0,0,0,0,0,0,0,0,0,0,0,0,0,0,0,0,0,0,0,0,0,0,0,0,0,0,0,0,0,0,0,0,0,0,0,0,0,0,0,0,0,0,0,0,0],"id":15,"left_children":[1,3,5,7,9,11,13,15,17,19,21,23,25,27,29,31,33,35,37,39,41,43,45,47,49,51,53,55,57,-1,-1,59,61,63,65,67,69,71,73,75,77,79,81,83,85,87,89,91,-1,93,95,97,-1,99,101,103,105,107,109,-1,-1,-1,-1,-1,-1,-1,-1,-1,-1,-1,-1,-1,-1,-1,-1,-1,-1,-1,-1,-1,-1,-1,-1,-1,-1,-1,-1,-1,-1,-1,-1,-1,-1,-1,-1,-1,-1,-1,-1,-1,-1,-1,-1,-1,-1,-1,-1,-1,-1,-1,-1],"loss_changes":[1.5621278E14,3.067849E13,4.2912E13,3.8700927E12,5.6629207E12,4.8768263E12,1.9037786E13,1.7681592E12,2.1453854E12,1.7534408E12,1.2705768E12,1.4051673E12,8.329783E11,6.3713994E12,3.6092154E12,6.055191E11,2.7082621E11,1.1701583E12,4.474578E11,1.3855991E12,1.3806616E12,3.2488607E11,8.198454E11,1.5909257E11,1.256861E12,1.628963E11,7.8610694E11,2.2086072E12,2.1428741E12,0E0,0E0,1.0309914E11,2.6278992E11,3.3862713E10,2.0296866E11,7.5384154E11,8.5638644E11,1.8727043E11,3.5722887E11,4.745412E11,1.1378069E12,8.0963043E11,7.0048475E11,1.0582616E11,2.34017E11,3.834674E11,7.8137996E11,1.3504715E11,0E0,1.1088544E12,2.9854794E12,9.063207E9,0E0,1.1439272E12,2.7736487E11,1.490837E12,1.6845415E12,2.8215125E12,2.6566355E11,0E0,0E0,0E0,0E0,0E0,0E0,0E0,0E0,0E0,0E0,0E0,0E0,0E0,0E0,0E0,0E0,0E0,0E0,0E0,0E0,0E0,0E0,0E0,0E0,0E0,0E0,0E0,0E0,0E0,0E0,0E0,0E0,0E0,0E0,0E0,0E0,0E0,0E0,0E0,0E0,0E0,0E0,0E0,0E0,0E0,0E0,0E0,0E0,0E0,0E0,0E0,0E0],"parents":[2147483647,0,0,1,1,2,2,3,3,4,4,5,5,6,6,7,7,8,8,9,9,10,10,11,11,12,12,13,13,14,14,15,15,16,16,17,17,18,18,19,19,20,20,21,21,22,22,23,23,24,24,25,25,26,26,27,27,28,28,31,31,32,32,33,33,34,34,35,35,36,36,37,37,38,38,39,39,40,40,41,41,42,42,43,43,44,44,45,45,46,46,47,47,49,49,50,50,51,51,53,53,54,54,55,55,56,56,57,57,58,58],"right_children":[2,4,6,8,10,12,14,16,18,20,22,24,26,28,30,32,34,36,38,40,42,44,46,48,50,52,54,56,58,-1,-1,60,62,64,66,68,70,72,74,76,78,80,82,84,86,88,90,92,-1,94,96,98,-1,100,102,104,106,108,110,-1,-1,-1,-1,-1,-1,-1,-1,-1,-1,-1,-1,-1,-1,-1,-1,-1,-1,-1,-1,-1,-1,-1,-1,-1,-1,-1,-1,-1,-1,-1,-1,-1,-1,-1,-1,-1,-1,-1,-1,-1,-1,-1,-1,-1,-1,-1,